%YAML:1.0
---
opencv_ml_svm:
   format: 3
   svmType: C_SVC
   kernel:
      type: LINEAR
   C: 5.0000000000000000e-01
   term_criteria: { epsilon:1.1920928955078125e-07, iterations:1000 }
   var_count: 24
   class_count: 6
   class_labels: !!opencv-matrix
      rows: 6
      cols: 1
      dt: i
      data: [ 1, 2, 3, 4, 5, 6 ]
   sv_total: 15
   support_vectors:
      - [ 4.58665155e-02, -6.99385926e-02, -2.76515961e-01,
          -9.59598571e-02, -9.50765684e-02, 2.75628325e-02,
          2.38397613e-01, -2.50083894e-01, -1.51350796e-01,
          -1.11111691e-02, -5.21180034e-02, -5.01643717e-01,
          -1.46752834e-01, 6.31399870e-01, 2.02376199e+00,
          1.65590072e+00, 4.01328444e-01, -1.13945258e+00,
          -1.88444793e+00, -1.89571655e+00, -7.74768293e-01,
          1.62727579e-01, -4.03344065e-01, -2.87066940e-02 ]
      - [ 5.76768853e-02, -5.06442413e-02, -3.02992254e-01,
          -3.23293656e-01, -4.89786297e-01, 7.51976669e-02,
          -3.95421162e-02, -3.01409028e-02, 6.66998676e-04,
          3.54273945e-01, -6.82696551e-02, -5.61747141e-02,
          -5.73350430e-01, -1.54959047e+00, -1.61786330e+00,
          5.06645679e-01, 2.18647599e+00, 7.62333572e-01,
          -7.22200930e-01, -6.08205497e-01, -6.71022654e-01,
          2.00588062e-01, 9.81952809e-03, 8.47061053e-02 ]
      - [ 1.67509973e-01, 3.30182999e-01, 1.06839396e-01,
          -1.51272789e-01, -8.72656465e-01, -2.61068434e-01,
          1.81461811e-01, 1.32820815e-01, 5.71946800e-03,
          -5.70961833e-02, -3.17311436e-01, -2.26377353e-01,
          5.26630878e-02, -6.83318777e-03, -1.41127989e-01,
          1.13935083e-01, -1.99667096e-01, -2.47302637e-01,
          -1.69667199e-01, -7.73266852e-02, -4.75818776e-02,
          1.25647038e-01, 7.90539756e-02, 1.18648179e-01 ]
      - [ 3.00479662e-02, 2.45971568e-02, -6.95488676e-02,
          9.21729878e-02, -2.62122303e-02, -3.90624069e-02,
          -9.62767452e-02, 3.66818719e-02, 1.43934906e-01,
          1.81575581e-01, -3.36467177e-02, -1.79475427e-01,
          -2.95932978e-01, -2.46359721e-01, -2.91720480e-01,
          3.45067750e-03, -5.57343625e-02, -1.23238094e-01,
          -4.65454981e-02, -2.58159749e-02, 1.08307144e-02,
          6.68710694e-02, 1.13870345e-01, -3.44229639e-02 ]
      - [ 2.74418499e-02, 1.01856505e-02, -1.09240770e-01,
          1.36682708e-02, -7.13964924e-02, -2.72610392e-02,
          3.75189446e-02, 1.70287061e-02, -3.24249873e-03,
          2.42380630e-02, 3.18123996e-02, 6.87842220e-02, 1.01664238e-01,
          8.01504850e-02, 6.71506599e-02, 9.35694128e-02,
          -8.71442165e-03, -9.37202275e-02, -1.33968994e-01,
          -1.30973160e-01, -1.07950889e-01, -6.05302677e-02,
          -3.27432863e-02, -3.55126932e-02 ]
      - [ 9.22093242e-02, -1.16391994e-01, -5.89381866e-02,
          -2.13277668e-01, -3.34496111e-01, -7.73161277e-03,
          -2.61458933e-01, 4.61290069e-02, 5.03503904e-02,
          2.45682299e-01, -1.10698245e-01, 1.08330116e-01,
          -1.04977014e-02, -1.42776489e+00, -2.10572171e+00,
          -5.46394028e-02, 1.15027404e+00, 7.99815178e-01,
          3.31136554e-01, 1.45661414e-01, 2.67547488e-01, 2.03809187e-01,
          4.33194220e-01, 1.79405063e-01 ]
      - [ 1.81624949e-01, 2.08674103e-01, 1.57322109e-01, 3.00405677e-02,
          -6.14165008e-01, -2.92441279e-01, 1.49001747e-01,
          1.26825869e-01, 1.37908412e-02, -2.11550724e-02,
          -2.61236817e-01, -1.79537103e-01, 6.82510715e-03,
          -4.98945303e-02, -1.98418945e-01, -7.68951699e-02,
          -2.28535980e-01, -1.05411835e-01, -7.74449902e-03,
          6.03406951e-02, 3.92970145e-02, 1.13735579e-01, 7.62167126e-02,
          7.85844028e-02 ]
      - [ 7.51720136e-03, 4.44117337e-02, -2.54352335e-02,
          1.36879057e-01, -8.52300003e-02, -4.20212746e-02,
          -9.10054147e-02, 3.30239497e-02, 1.21500567e-01,
          1.73670664e-01, 5.92525536e-03, -1.26823694e-01,
          -2.37068638e-01, -2.10596457e-01, -2.89724052e-01,
          -8.62665474e-02, -6.85384944e-02, -9.05267224e-02,
          -2.50245780e-02, 1.48867546e-02, 3.76861319e-02,
          2.08103526e-02, 1.23123042e-01, 4.25325856e-02 ]
      - [ 1.32164732e-02, 1.30841490e-02, -1.21135794e-01,
          2.53616888e-02, -9.61039439e-02, -2.57995743e-02,
          3.96573693e-02, 1.73586793e-02, -4.30911966e-03,
          2.33536977e-02, 1.06999269e-02, 8.63755047e-02, 1.32559225e-01,
          6.62149116e-02, 6.41222596e-02, 1.04377516e-01, 3.69399320e-03,
          -1.11697547e-01, -1.41500667e-01, -1.36358559e-01,
          -1.32939026e-01, -5.11937924e-02, -2.62414962e-02,
          -3.96939404e-02 ]
      - [ 1.54973328e-01, 2.08160058e-01, 8.45041499e-02, 4.07611243e-02,
          -5.05624473e-01, -4.01551694e-01, 1.88843325e-01,
          1.44217029e-01, 2.12132465e-02, -2.08638553e-02,
          -2.33001456e-01, -1.54594824e-01, 1.89151019e-02,
          -5.97283803e-03, 2.31250320e-02, 4.43429276e-02,
          -2.80824453e-01, -1.83248937e-01, -7.20088184e-02,
          3.55176814e-02, 4.25278731e-02, 6.55982941e-02, 5.03848456e-02,
          1.19575020e-02 ]
      - [ 1.42949503e-02, 5.98120987e-02, -7.92675167e-02,
          1.22426152e-01, -7.84119889e-02, -2.02490091e-02,
          3.21046449e-02, 1.75133869e-02, 1.43468261e-01, 2.83772081e-01,
          5.53140342e-02, -2.23655835e-01, -2.70376205e-01,
          -2.28455260e-01, -2.36150295e-01, -2.73575401e-03,
          -1.04406461e-01, -1.62048936e-01, -3.22472304e-02,
          2.89313085e-02, 5.82261905e-02, 6.10262603e-02, 5.49609698e-02,
          -8.82413238e-02 ]
      - [ 3.25427316e-02, 1.21790171e-02, -9.74881053e-02,
          1.11320261e-02, -8.15451071e-02, -2.73350980e-02,
          5.61627857e-02, 2.34145969e-02, -2.55890028e-03,
          1.51962424e-02, 1.87341794e-02, 8.01961645e-02, 1.04842380e-01,
          8.73054788e-02, 8.52130949e-02, 7.50181451e-02,
          -1.73909403e-02, -1.13461517e-01, -1.21467203e-01,
          -1.14852659e-01, -9.89634618e-02, -5.10635823e-02,
          -6.34658262e-02, -5.14155515e-02 ]
      - [ -9.19425935e-02, -5.53718880e-02, -4.84534837e-02,
          1.06037036e-01, 2.17293110e-02, 2.78859772e-02,
          -4.56251502e-02, 1.95433088e-02, 2.01841190e-01,
          2.85778344e-01, 1.13283738e-01, -2.62623746e-02,
          -2.20550507e-01, -2.38540217e-01, -2.33323261e-01,
          -4.11343314e-02, 2.83890199e-02, -6.26388788e-02,
          -2.93327253e-02, -9.03376471e-03, 9.09292698e-03,
          1.41017018e-02, 4.16077761e-04, 1.48845948e-02 ]
      - [ -5.33419251e-02, -5.80880381e-02, -1.06434368e-01,
          3.93658280e-02, 1.14459535e-02, 5.41997030e-02, 7.35465214e-02,
          1.19867902e-02, -2.80465768e-03, 3.31217013e-02,
          9.04013664e-02, 8.64333808e-02, 9.17757303e-02, 8.33283961e-02,
          8.01953077e-02, 9.59450305e-02, 3.49500217e-02,
          -5.40319942e-02, -1.17391691e-01, -1.20497011e-01,
          -9.89299938e-02, -4.81631346e-02, -2.58471482e-02,
          -4.41530421e-02 ]
      - [ 3.95627739e-03, -1.88690610e-02, -6.64364547e-02,
          -3.11568528e-02, -7.46643590e-03, 1.67211909e-02,
          5.52607775e-02, 1.08827353e-02, -4.97903638e-02,
          -6.56232089e-02, 3.25727463e-02, 9.97364596e-02,
          1.20081335e-01, 1.10633701e-01, 1.00053221e-01, 4.07949686e-02,
          -1.09057669e-02, -4.69375923e-02, -6.90658763e-02,
          -7.70749897e-02, -7.51231313e-02, -2.96258852e-02,
          -9.86557454e-03, -2.74029048e-03 ]
   uncompressed_sv_total: 171
   uncompressed_support_vectors:
      - [ 5.30959964e-01, 3.05422097e-01, 1.59222126e-01, 4.56393421e-01,
          1.57972813e+00, 1.18237281e+00, 3.77387971e-01,
          -5.24358940e+00, -3.83953261e+00, -2.91969705e+00,
          -3.57856214e-01, 1.00387359e+00, 1.28284883e+00,
          1.32279849e+00, 3.18028688e-01, 5.97761460e-02, 1.56301737e+00,
          9.18670893e-01, -1.91783652e-01, -3.96974266e-01,
          -5.18142343e-01, -8.56870115e-01, -1.29636919e+00,
          -6.93746686e-01 ]
      - [ 5.30959964e-01, 9.22565460e-02, -2.16628373e-01,
          -1.06336877e-01, 1.41223300e+00, 1.18237281e+00,
          3.77387971e-01, 7.61251152e-03, -1.71822393e+00,
          -1.99029207e+00, 1.64074893e-03, 1.24164581e+00,
          1.50176620e+00, 1.79087269e+00, 7.19506979e-01, 2.95085385e-02,
          1.52819932e+00, 1.04033589e+00, -2.55996466e-01,
          -3.96974266e-01, -5.44722438e-01, -1.32874918e+00,
          -1.29636919e+00, -6.93746686e-01 ]
      - [ 5.30959964e-01, 9.22565460e-02, -1.85620191e-03,
          -1.36685383e+00, 2.33563662e-01, 7.01684296e-01,
          3.77387971e-01, 3.82693589e-01, -9.95047808e-01,
          -1.75198352e+00, 1.98508173e-01, 1.36374497e+00,
          1.47257710e+00, 1.81427646e+00, 9.93687212e-01, 1.05177335e-01,
          8.31839740e-01, 7.97005892e-01, -2.34592274e-01,
          -3.79385799e-01, -4.84917253e-01, -3.69769096e-01,
          -1.13953495e+00, -6.93746686e-01 ]
      - [ -2.53878522e+00, -2.89206052e+00, -4.58246648e-01,
          6.81485534e-01, 1.16409230e+00, 9.97492969e-01, 3.77387971e-01,
          -1.30519366e+00, -2.63424397e+00, -2.44307852e+00,
          -9.25135463e-02, 1.24807239e+00, 1.38501036e+00,
          1.63484812e+00, 1.89456534e+00, 4.22986537e-01,
          -3.86789709e-01, 6.53650437e-04, -5.62233701e-02,
          -3.85248691e-01, -4.25112069e-01, 9.44992304e-02,
          7.35346437e-01, 5.94895303e-01 ]
      - [ 9.69495058e-01, 9.22565460e-02, -5.55500425e-02,
          2.08792344e-01, 9.28358138e-01, 5.90757728e-01, 3.77387971e-01,
          3.82693589e-01, -3.68296564e-01, -1.06088853e+00,
          4.55291510e-01, 1.62722230e+00, 1.80095351e+00, 1.88448763e+00,
          2.68772936e+00, 2.79898953e+00, 6.22931898e-01,
          -2.09494784e-01, 7.98944384e-03, -8.62469524e-02,
          -2.05826342e-01, 4.75046784e-01, 1.28426600e+00,
          2.32222390e+00 ]
      - [ 5.30959964e-01, 9.22565460e-02, 1.04515529e+00, 4.78902340e-01,
          8.78730237e-01, 8.86564136e-01, 3.77387971e-01, 3.82693589e-01,
          -1.27238810e-01, -4.88947809e-01, 6.00802362e-01,
          1.67220640e+00, 1.94689846e+00, 2.25114560e+00, 2.88357282e+00,
          1.76989257e+00, 1.45856321e+00, 1.31684685e+00, 4.64613587e-01,
          -2.17563361e-02, 8.65544304e-02, 5.51156521e-01,
          8.77923012e-01, -6.93746686e-01 ]
      - [ 1.40803015e+00, 9.44918692e-01, -2.43474483e-01,
          -1.05172455e+00, 8.04287791e-01, 8.49588633e-01,
          3.77387971e-01, -1.79939210e-01, -1.23610556e+00,
          -1.77581406e+00, 1.12913728e-01, 1.33804023e+00,
          1.42149651e+00, 1.52563071e+00, 1.59100842e+00, 5.59190571e-01,
          6.57749414e-01, 7.52764285e-01, -7.76275694e-02,
          -4.43876415e-01, -4.45047081e-01, -2.47993827e-01,
          -9.25670207e-01, -6.93746686e-01 ]
      - [ 9.69495058e-01, 5.18587649e-01, 1.55523801e+00,
          -3.46021223e+00, -1.28009582e+00, -1.18409193e+00,
          3.77387971e-01, 3.82693589e-01, 4.03087646e-01,
          -1.07653029e-01, 5.92243016e-01, 1.74289525e+00,
          1.88122356e+00, 2.14972949e+00, 2.42334175e+00, 3.11679816e+00,
          9.71111417e-01, 5.20494938e-01, 2.22032085e-01, 1.69482699e-03,
          -1.79246426e-01, 1.02110088e-01, -2.76946902e-01,
          -6.93746686e-01 ]
      - [ 5.30959964e-01, 3.05422097e-01, 7.22998679e-01,
          -4.76574850e+00, -1.24287474e+00, -3.06986809e+00,
          3.77387971e-01, 3.82693589e-01, -1.75452650e-01,
          -7.51086891e-01, 2.15626866e-01, 1.48584449e+00,
          1.69149494e+00, 1.51002848e+00, 7.68467724e-01, 6.49993360e-01,
          2.01565123e+00, 4.32011157e-01, -3.55883032e-01,
          -5.08367002e-01, -6.64332628e-01, -1.75496256e+00,
          -1.29636919e+00, -6.93746686e-01 ]
      - [ 9.69495058e-01, 3.05422097e-01, -2.87023224e-02,
          -4.43975061e-01, 1.27575541e+00, 1.18237281e+00,
          3.77387971e-01, 3.82693589e-01, -4.16510403e-01,
          -1.34685814e+00, 3.26899827e-01, 1.53082824e+00,
          1.78635919e+00, 1.91569269e+00, 2.47230244e+00, 1.98176539e+00,
          5.18477738e-01, 2.43983671e-01, 1.86358348e-01,
          -8.62469524e-02, -1.65956363e-01, 4.14159268e-01,
          8.42278898e-01, -2.41351098e-01 ]
      - [ 5.30959964e-01, 9.22565460e-02, 9.91463065e-01,
          -2.73991680e+00, -5.35673201e-01, -3.33643705e-01,
          3.77387971e-01, 3.82693589e-01, -1.13968360e+00,
          -1.75198352e+00, -3.25971320e-02, 1.29305613e+00,
          1.53825235e+00, 1.63484812e+00, 6.70546293e-01, 1.80846572e-01,
          2.15492344e+00, 1.02927554e+00, -1.20436184e-01,
          -2.85581499e-01, -4.18466955e-01, -8.18815291e-01,
          -1.29636919e+00, -6.93746686e-01 ]
      - [ 5.30959964e-01, 9.22565460e-02, -3.24014455e-01,
          5.68939447e-01, 1.43704712e+00, 1.18237281e+00, 3.77387971e-01,
          -5.55020273e-01, -2.48960805e+00, -2.65755653e+00,
          -2.38023892e-01, 1.04885781e+00, 1.37041557e+00,
          1.32279849e+00, 1.12393513e-01, 1.65712550e-01, 1.61524427e+00,
          6.31099284e-01, -3.20209295e-01, -4.79053169e-01,
          -8.70328248e-01, -2.15834308e+00, -1.29636919e+00,
          -6.93746686e-01 ]
      - [ -7.84645319e-01, -1.18673670e+00, -7.80403316e-01,
          1.41264185e-01, 1.23233092e+00, 1.18237281e+00, 3.77387971e-01,
          -7.42560804e-01, -2.48960805e+00, -2.25243258e+00,
          -1.01072893e-01, 1.20308828e+00, 1.37771320e+00,
          1.70505917e+00, 1.55183971e+00, -6.12938330e-02,
          -6.30516112e-01, -1.54192612e-01, -1.13301307e-01,
          -5.20092607e-01, -4.18466955e-01, -8.05527270e-02,
          5.85641086e-01, -2.41351098e-01 ]
      - [ 5.30959964e-01, 9.22565460e-02, 1.12569523e+00,
          -3.77534151e+00, -1.66471422e+00, -5.62121248e+00,
          -1.19673896e+00, 3.82693589e-01, 4.03087646e-01,
          -8.38224664e-02, 7.29194045e-01, 1.76860046e+00,
          1.97608757e+00, 2.04051232e+00, 1.89456534e+00, 7.71063328e-01,
          1.40633643e+00, 7.63824642e-01, -1.91783652e-01,
          -3.26620936e-01, -4.58337128e-01, -2.09939092e-01,
          -1.29636919e+00, -6.93746686e-01 ]
      - [ 1.84656489e+00, 1.37124944e+00, -2.97168344e-01,
          2.08792344e-01, 1.49908221e+00, 1.18237281e+00, 3.77387971e-01,
          3.82693589e-01, -5.61143339e-01, -1.32302761e+00,
          2.84102619e-01, 1.53082824e+00, 1.69879210e+00, 1.97030115e+00,
          2.57022381e+00, 1.95149779e+00, 4.66250896e-01, 4.48955335e-02,
          1.29280195e-01, -5.69330826e-02, -2.12471470e-01,
          4.29381222e-01, 1.24149323e+00, 1.93837321e+00 ]
      - [ 5.30959964e-01, -1.20908991e-01, 6.69304848e-01,
          -7.14086413e-01, 8.16694677e-01, 8.86564136e-01,
          3.77387971e-01, 3.82693589e-01, -4.64721382e-01,
          -1.53750563e+00, 1.55710950e-01, 1.40872908e+00,
          1.54554999e+00, 1.72066152e+00, 2.46250987e+00, 1.84556139e+00,
          8.31839740e-01, 6.53220236e-01, 5.00287294e-01, 2.83108085e-01,
          2.72614896e-01, 1.02303541e+00, 1.71199560e+00, 2.73349261e+00 ]
      - [ 5.30959964e-01, 3.05422097e-01, -1.89782247e-01,
          -2.06464052e+00, 1.77731946e-01, 7.75637567e-01,
          3.77387971e-01, 3.82693589e-01, -8.98625910e-01,
          -1.63282931e+00, 1.55710950e-01, 1.40872908e+00,
          1.53825235e+00, 1.77527034e+00, 1.96311009e+00, 3.62451762e-01,
          -5.60189448e-02, 4.32011157e-01, -1.34147555e-02,
          -4.32150841e-01, -3.12146634e-01, -5.77199310e-02,
          4.35935706e-01, -6.93746686e-01 ]
      - [ 5.30959964e-01, 5.18587649e-01, 1.59222126e-01, 3.66356283e-01,
          1.30677295e+00, 1.18237281e+00, 3.77387971e-01,
          -9.30112541e-01, -2.58603001e+00, -2.58606482e+00,
          -1.78107992e-01, 1.15167797e+00, 1.31203794e+00,
          1.55683577e+00, 4.74703133e-01, -7.64278620e-02,
          1.28447342e+00, 8.30187440e-01, -1.41840383e-01,
          -3.91111374e-01, -4.05176878e-01, -2.93659419e-01,
          -1.12527728e+00, -6.93746686e-01 ]
      - [ 1.40803015e+00, 1.15808380e+00, -3.77706707e-01,
          6.13958716e-01, -7.03168392e-01, 7.30937198e-02,
          3.77387971e-01, 3.82693589e-01, 4.03087646e-01, 2.25979179e-01,
          -1.03405297e+00, -5.00352010e-02, 8.60992447e-02,
          1.99922416e-02, -1.49042839e-02, -2.12631881e-01,
          -3.86789709e-01, 1.17142852e-02, -2.27457389e-01,
          -5.90445936e-01, -8.10523093e-01, -1.85390508e+00,
          -1.29636919e+00, -6.93746686e-01 ]
      - [ 5.30959964e-01, 7.31753170e-01, -6.19324982e-01,
          3.43847364e-01, -6.10115290e-01, -1.48763850e-01,
          3.77387971e-01, 3.82693589e-01, 4.03087646e-01, 5.83441973e-01,
          9.51739967e-01, 1.68458000e-01, 3.41503263e-01, 3.24240506e-01,
          4.74703133e-01, 8.01330984e-01, -5.60189448e-02,
          -6.96154475e-01, -9.48067665e-01, -3.91111374e-01,
          -1.59311220e-01, 2.39107311e-01, 1.19159138e+00,
          2.29480600e+00 ]
      - [ 5.30959964e-01, 3.05422097e-01, 3.47148180e-01,
          -9.61687446e-01, -7.21778691e-01, -1.36897171e+00,
          3.77387971e-01, 3.82693589e-01, 4.03087646e-01, 5.35780847e-01,
          8.49026382e-01, 4.44788069e-01, 6.40690625e-01, 8.07916939e-01,
          9.25142169e-01, 1.25534415e+00, 7.44794846e-01,
          -1.65252909e-01, -1.34147555e-02, -2.17563361e-02,
          6.81405561e-03, 1.93441495e-01, -7.02109411e-02,
          -6.93746686e-01 ]
      - [ -2.10025024e+00, -2.46572948e+00, -1.02202165e+00,
          3.43847364e-01, -1.31731701e+00, -1.92361128e+00,
          1.15037374e-01, 1.95153043e-01, 4.03087646e-01, 4.40457135e-01,
          -3.40737522e-01, -3.19938689e-01, 4.96130176e-02,
          -2.99858510e-01, 1.22185834e-01, -2.88300663e-01,
          -8.91650796e-01, -1.22705603e+00, -9.05259073e-01,
          -5.61132073e-01, -4.58337128e-01, -1.33829400e-01,
          3.86033922e-01, 1.69917658e-01 ]
      - [ 5.30959964e-01, 5.18587649e-01, -6.73018813e-01,
          2.31301293e-01, -8.33442152e-01, -8.59537220e-04,
          3.77387971e-01, 3.82693589e-01, 4.03087646e-01, 5.91623634e-02,
          -1.39354992e+00, -1.78560570e-01, -3.79539654e-02,
          -6.58214167e-02, -3.44886295e-02, -4.54772294e-01,
          -5.78288794e-01, -4.19643223e-01, -3.84422094e-01,
          -6.19759798e-01, -8.23813140e-01, -1.68646407e+00,
          -1.29636919e+00, -6.93746686e-01 ]
      - [ 9.69495058e-01, 9.44918692e-01, -2.70320624e-01,
          -1.62997637e-02, -5.97708404e-01, 3.61159928e-02,
          3.77387971e-01, 3.82693589e-01, 4.03087646e-01,
          -1.07653029e-01, -1.22236097e+00, 9.77691263e-02,
          1.22585468e-01, -3.41163110e-03, 2.42641121e-02,
          -1.67230234e-01, -3.17154109e-01, 2.43983671e-01,
          -1.06166646e-01, -4.61464882e-01, -6.24462605e-01,
          -1.67885315e+00, -1.29636919e+00, -6.93746686e-01 ]
      - [ 9.69495058e-01, 9.44918692e-01, -9.68329370e-01,
          2.76319176e-01, -1.06917596e+00, -1.96058679e+00,
          1.15037374e-01, 3.82693589e-01, 4.03087646e-01, 5.83441973e-01,
          5.23767292e-01, 1.37509848e-03, 8.60992447e-02, 4.33958806e-02,
          1.61354229e-01, 4.07852948e-01, -8.04605901e-01,
          -1.00584698e+00, -1.20491874e+00, -6.37348235e-01,
          -3.98531944e-01, 2.60006208e-02, 9.91984248e-01,
          1.99320889e+00 ]
      - [ 5.30959964e-01, 3.05422097e-01, 5.08226514e-01, 2.31301293e-01,
          -5.85301101e-01, -1.11013865e+00, 3.77387971e-01,
          3.82693589e-01, 4.03087646e-01, 5.83441973e-01, 9.08942759e-01,
          6.44002318e-01, 4.14475709e-01, 4.56861198e-01, 8.17428410e-01,
          7.71063328e-01, 7.09976792e-01, -1.87373847e-01,
          -2.76842937e-02, -9.21096578e-02, -7.29261190e-02,
          4.29381222e-01, 3.57518584e-01, -6.93746686e-01 ]
      - [ 1.40803015e+00, 1.37124944e+00, -2.97168344e-01,
          1.86283410e-01, -6.59743547e-01, -3.70619237e-01,
          3.77387971e-01, 3.82693589e-01, 4.03087646e-01, 5.11948824e-01,
          8.40467036e-01, 4.51214254e-01, 5.38529158e-01, 3.94451410e-01,
          5.72624862e-01, 8.61866176e-01, 2.74751842e-01,
          -5.19187272e-01, -4.98578191e-01, -3.09032470e-01,
          -8.62161815e-02, 2.92383969e-01, 7.99505889e-01,
          1.42499730e-01 ]
      - [ 5.30959964e-01, 5.18587649e-01, -5.92478871e-01,
          -1.28845826e-01, -3.49567354e-01, 3.31924617e-01,
          3.77387971e-01, 3.82693589e-01, 4.03087646e-01,
          -9.89395440e-01, -1.88999844e+00, -1.01445504e-01,
          -3.37141126e-01, -1.82840079e-01, -5.33888400e-01,
          -5.60708702e-01, -9.61286902e-01, -3.09038848e-01,
          -4.48634893e-01, -7.19427168e-01, -7.77298033e-01,
          -1.65602028e+00, -1.29636919e+00, -6.93746686e-01 ]
      - [ 5.30959964e-01, 7.31753170e-01, -7.53557205e-01,
          3.43847364e-01, -9.20291483e-01, -4.81548011e-01,
          3.77387971e-01, 3.82693589e-01, 4.03087646e-01, 5.83441973e-01,
          1.20852327e+00, 5.92592418e-01, 2.46638894e-01, 4.17855293e-01,
          1.61354229e-01, 8.76999736e-01, -5.26061952e-01,
          -7.95698583e-01, -1.06222379e+00, -5.37680924e-01,
          -3.45371902e-01, 1.85830638e-01, 9.99113023e-01,
          2.56898522e+00 ]
      - [ 1.40803015e+00, 1.37124944e+00, 5.18360399e-02, 2.53810227e-01,
          -4.11602527e-01, 2.20995829e-01, 3.77387971e-01,
          3.82693589e-01, 4.03087646e-01, -2.02976719e-01,
          -1.69313097e+00, 1.37509848e-03, -1.60620548e-02,
          -3.46164070e-02, 4.67976788e-03, -9.15614441e-02,
          -2.30109230e-01, 1.77620843e-01, -2.70265996e-01,
          -5.96308649e-01, -8.63683164e-01, -2.09745574e+00,
          -1.29636919e+00, -6.93746686e-01 ]
      - [ 5.30959964e-01, 7.31753170e-01, -6.46171093e-01,
          4.11375523e-01, -7.27982163e-01, 1.10069253e-01,
          3.77387971e-01, 3.82693589e-01, 4.03087646e-01,
          -5.99918962e-02, -1.59041739e+00, -6.28875867e-02,
          -1.76601708e-01, -8.14239234e-02, -2.59708136e-01,
          -4.54772294e-01, -7.87196636e-01, -2.75857270e-01,
          -2.98804879e-01, -6.08034194e-01, -6.44397616e-01,
          -1.36680412e+00, -1.29636919e+00, -6.93746686e-01 ]
      - [ 5.30959964e-01, 7.31753170e-01, -6.19324982e-01,
          4.78902340e-01, -7.90017724e-01, -7.03403413e-01,
          3.77387971e-01, 3.82693589e-01, 4.03087646e-01, 5.83441973e-01,
          9.60299313e-01, 2.45573446e-01, 3.34206104e-01, 2.85234123e-01,
          5.53040504e-01, 6.80260956e-01, -1.43063828e-01,
          -6.85093880e-01, -9.83741403e-01, -4.55601990e-01,
          -1.59311220e-01, 3.15216780e-01, 1.07753015e+00,
          2.30851507e+00 ]
      - [ -7.84645319e-01, -7.60405600e-01, -4.58246648e-01,
          2.76319176e-01, -1.22426403e+00, -1.14711630e+00,
          3.77387971e-01, 3.82693589e-01, 4.03087646e-01, 5.59611380e-01,
          -2.38023892e-01, -2.62102216e-01, 1.95558354e-01,
          -8.92250538e-02, 3.57197374e-01, -6.12938330e-02,
          -3.86789709e-01, -1.08327019e+00, -7.55429208e-01,
          -7.60466576e-01, -5.97882509e-01, -8.81638080e-02,
          -1.41499251e-01, -6.93746686e-01 ]
      - [ 5.30959964e-01, 5.18587649e-01, -6.19324982e-01,
          4.56393421e-01, -1.08778667e+00, -1.29501843e+00,
          3.77387971e-01, 3.82693589e-01, 4.03087646e-01, 5.83441973e-01,
          1.14860737e+00, 5.15476942e-01, 1.29883066e-01, 6.90898538e-01,
          4.64911103e-01, 1.04347134e+00, 4.84347120e-02,
          -8.62061083e-01, -1.04795420e+00, -5.90445936e-01,
          -2.72276670e-01, 2.61940092e-01, 1.06327248e+00,
          2.23997021e+00 ]
      - [ 5.30959964e-01, 7.31753170e-01, -9.14637089e-01,
          5.68939447e-01, -8.02424610e-01, 3.31924617e-01,
          3.77387971e-01, 3.82693589e-01, 4.03087646e-01, 4.88118261e-01,
          -8.71423364e-01, -2.62102216e-01, -1.32818103e-01,
          -2.76454866e-01, -1.22618027e-01, -8.02849114e-01,
          -7.87196636e-01, -7.18275428e-01, -5.19982398e-01,
          -6.66662097e-01, -7.70652890e-01, -1.01670015e+00,
          -1.29636919e+00, -6.93746686e-01 ]
      - [ 1.40803015e+00, 1.58441496e+00, -2.70320624e-01,
          6.58976555e-01, -2.81328738e-01, 2.20995829e-01,
          3.77387971e-01, 3.82693589e-01, 4.03087646e-01,
          -3.61613296e-02, -1.43634760e+00, -5.05147595e-03,
          -1.91196233e-01, -7.36227855e-02, -3.28253210e-01,
          -4.54772294e-01, -6.30516112e-01, -1.09950721e-01,
          -3.84422094e-01, -5.61132073e-01, -6.37752652e-01,
          -1.73212981e+00, -1.29636919e+00, -6.93746686e-01 ]
      - [ 5.30959964e-01, 9.22565460e-02, -8.60943258e-01,
          -2.94249988e+00, -4.92248386e-01, -4.14217138e+00,
          -2.77085805e+00, 3.82693589e-01, -7.90278316e-02,
          -8.70241165e-01, -1.54784461e-02, 3.16262335e-01,
          -2.93357760e-01, -2.29647368e-01, -6.38652891e-02,
          -6.96912706e-01, -8.04605901e-01, -9.39484179e-01,
          -5.27117074e-01, -5.37680924e-01, -6.64332628e-01,
          -1.94717154e-01, -5.76357663e-01, -6.93746686e-01 ]
      - [ 5.30959964e-01, 3.05422097e-01, 3.20300460e-01, 2.98829466e-01,
          -8.02424610e-01, -7.03403413e-01, 3.77387971e-01,
          3.82693589e-01, 4.03087646e-01, 4.88118261e-01, 1.64270297e-01,
          2.58425832e-01, 4.58259076e-01, 3.86650264e-01, 6.90130651e-01,
          6.34859800e-01, 6.40340686e-01, 3.10346156e-01, 6.50675967e-02,
          -1.03835233e-01, -1.12796105e-01, 1.07786814e-02,
          -6.90418899e-01, -6.93746686e-01 ]
      - [ 1.40803015e+00, 1.58441496e+00, -5.38786650e-01,
          5.68939447e-01, -5.91504931e-01, -6.29452348e-01,
          3.77387971e-01, 3.82693589e-01, 4.03087646e-01, 5.83441973e-01,
          1.07157230e+00, 3.09836119e-01, 3.63395154e-01, 5.11470079e-01,
          5.04079819e-01, 9.82936144e-01, 1.18070826e-01,
          -7.51456678e-01, -9.33798134e-01, -3.38346362e-01,
          -1.59311220e-01, 2.23885372e-01, 1.14881837e+00,
          1.04729104e+00 ]
      - [ 5.30959964e-01, 5.18587649e-01, -5.38786650e-01,
          5.91448426e-01, -3.80584925e-01, 6.27733231e-01,
          3.77387971e-01, 3.82693589e-01, 4.03087646e-01, 2.97470897e-01,
          -1.58185804e+00, -1.33576840e-01, -2.05790773e-01,
          -1.75038710e-01, -2.00955406e-01, -6.06109858e-01,
          -8.22014689e-01, -3.53280425e-01, -4.34365362e-01,
          -6.43210948e-01, -7.64007986e-01, -1.71690786e+00,
          -1.29636919e+00, -6.93746686e-01 ]
      - [ 1.40803015e+00, 1.15808380e+00, -4.31400537e-01,
          -3.37017655e+00, -3.37160468e-01, -2.36732411e+00,
          -4.09671605e-01, 3.82693589e-01, 4.03087646e-01,
          2.97470897e-01, 2.66983420e-01, 6.69707477e-01, 2.17449829e-01,
          7.61109710e-01, 5.62832534e-01, 1.27047825e+00,
          -5.60189448e-02, -6.85093880e-01, -5.77060342e-01,
          -3.55934799e-01, -2.98856795e-01, -2.32771888e-01,
          1.43653870e-01, -6.93746686e-01 ]
      - [ 5.30959964e-01, 5.18587649e-01, -5.92478871e-01,
          4.78902340e-01, -1.08778667e+00, -1.29501843e+00,
          3.77387971e-01, 3.82693589e-01, 4.03087646e-01, 5.83441973e-01,
          1.14860737e+00, 4.89771783e-01, 1.80963606e-01, 7.14302421e-01,
          4.25742418e-01, 1.04347134e+00, -5.60189448e-02,
          -8.62061083e-01, -1.01941514e+00, -5.90445936e-01,
          -2.52341658e-01, 3.07605922e-01, 1.04901481e+00,
          2.26738834e+00 ]
      - [ 9.69495058e-01, 9.44918692e-01, -1.09242283e-01,
          -1.06336877e-01, -8.70663166e-01, -3.33643705e-01,
          3.77387971e-01, 3.82693589e-01, 4.03087646e-01, 5.35780847e-01,
          1.72829643e-01, 2.07015917e-01, 3.48800421e-01, 3.16439122e-01,
          4.06158090e-01, 1.20311365e-01, 1.87706947e-01,
          -1.87373847e-01, -9.18971077e-02, -1.80051431e-01,
          -2.85566717e-01, -4.38267708e-01, -9.82700825e-01,
          -6.93746686e-01 ]
      - [ 1.40803015e+00, 1.37124944e+00, -6.19324982e-01,
          1.41264185e-01, -4.36416656e-01, 4.05875683e-01,
          3.77387971e-01, 3.82693589e-01, 4.03087646e-01, 5.83441973e-01,
          1.02021527e+00, 1.04195312e-01, 2.46638894e-01, 3.47644120e-01,
          4.25742418e-01, 6.80260956e-01, -1.08246289e-01,
          -7.84637928e-01, -6.27003610e-01, -4.14562553e-01,
          -2.45696530e-01, 1.78219557e-01, 9.06438172e-01,
          1.91191211e-02 ]
      - [ -2.53878522e+00, -2.67889500e+00, -8.87789369e-01,
          5.46430528e-01, -1.00714076e+00, -1.55385160e+00,
          3.77387971e-01, 3.82693589e-01, 4.03087646e-01, 4.64287698e-01,
          4.46732163e-01, 4.63588238e-02, 4.23158631e-02,
          -2.68152710e-02, 1.31977856e-01, 1.65712550e-01,
          -8.39423954e-01, -1.05008888e+00, -1.14784074e+00,
          -5.96308649e-01, -4.11822021e-01, -8.81638080e-02,
          8.20892274e-01, 1.30776107e+00 ]
      - [ 5.30959964e-01, 5.18587649e-01, -2.97168344e-01,
          4.78902340e-01, -6.65947020e-01, 4.05875683e-01,
          3.77387971e-01, 3.82693589e-01, 4.03087646e-01, 2.25979179e-01,
          -1.33363402e+00, -1.33576840e-01, -5.25482818e-02,
          -1.43833712e-01, -1.42202377e-01, -4.54772294e-01,
          -6.82742953e-01, -2.31615737e-01, -3.98691624e-01,
          -5.66994786e-01, -7.64007986e-01, -1.61796546e+00,
          -1.29636919e+00, -6.93746686e-01 ]
      - [ 5.30959964e-01, 5.18587649e-01, -2.16628373e-01,
          4.11375523e-01, -6.78354263e-01, 3.31924617e-01,
          3.77387971e-01, 3.82693589e-01, 4.03087646e-01,
          -5.99918962e-02, -1.71024966e+00, -1.52855799e-01,
          -2.27682471e-01, -1.51635066e-01, -6.38652891e-02,
          -5.60708702e-01, -5.95698059e-01, -6.51912630e-01,
          -3.41613472e-01, -3.96974266e-01, -5.64657450e-01,
          -6.66596234e-01, -1.29636919e+00, -6.93746686e-01 ]
      - [ 5.30959964e-01, 7.31753170e-01, -5.38786650e-01,
          3.43847364e-01, -6.22522533e-01, 1.10069253e-01,
          3.77387971e-01, 3.82693589e-01, 4.03087646e-01, 3.53317969e-02,
          -1.39354992e+00, -2.36397058e-01, -3.29843968e-01,
          -2.37448737e-01, -2.89084524e-01, -7.72581518e-01,
          -8.91650796e-01, -3.53280425e-01, -5.34251928e-01,
          -7.01838672e-01, -7.83942938e-01, -1.67124212e+00,
          -1.29636919e+00, -6.93746686e-01 ]
      - [ 5.30959964e-01, 3.05422097e-01, -6.46171093e-01,
          6.13958716e-01, -7.58999765e-01, -1.11788325e-01,
          3.77387971e-01, 3.82693589e-01, 4.03087646e-01, 3.68964016e-01,
          -9.22780454e-01, 7.80129014e-03, 8.60992447e-02,
          -1.36032566e-01, 9.28091705e-02, -5.30441105e-01,
          -2.47518003e-01, -7.40396380e-01, -2.98804879e-01,
          -4.73190278e-01, -5.44722438e-01, -5.21988034e-01,
          -1.03260255e+00, -6.93746686e-01 ]
      - [ 9.69495058e-01, 5.18587649e-01, -2.70320624e-01,
          5.12270667e-02, -4.98451829e-01, 4.42853421e-01,
          3.77387971e-01, 3.82693589e-01, 4.03087646e-01, 4.88118261e-01,
          -2.20905215e-01, -1.14297882e-01, 3.63395154e-01,
          1.99922416e-02, 2.98444331e-01, -1.67230234e-01,
          -2.99744844e-01, -7.84637928e-01, -3.13074410e-01,
          -3.26620936e-01, -4.11822021e-01, -2.32771888e-01,
          -6.26259506e-01, -6.93746686e-01 ]
      - [ -2.10025024e+00, -1.82623315e+00, 2.39762083e-01,
          6.13958716e-01, 4.74581681e-02, 2.94949085e-01,
          -1.61457341e-02, -1.30519366e+00, -3.08168605e-02,
          3.68964016e-01, 2.32746050e-01, -2.68528402e-01,
          -2.78763235e-01, 1.21408172e-01, 5.72624862e-01,
          1.25534415e+00, 1.12779248e+00, 5.31555235e-01,
          -1.91783652e-01, -2.73855925e-01, 1.69123567e-04,
          1.32553965e-01, 7.63861775e-01, -5.70366085e-01 ]
      - [ 9.24248919e-02, -1.20908991e-01, -6.46171093e-01,
          -4.66485351e-01, 1.36260462e+00, 9.23539698e-01,
          3.77387971e-01, 3.82693589e-01, 4.03087646e-01, 5.83441973e-01,
          1.10581017e+00, -2.43300516e-02, -1.62007168e-01,
          1.52613178e-01, -5.11225825e-03, 3.77585351e-01,
          3.09569895e-01, 4.48955335e-02, -3.41613472e-01,
          -6.13897085e-01, -3.05501699e-01, 3.83715391e-01,
          5.35739303e-01, -5.01821280e-01 ]
      - [ -3.46110195e-01, -3.34074527e-01, -5.11938870e-01,
          7.03995824e-01, 6.92624331e-01, 9.23539698e-01, 3.77387971e-01,
          3.82693589e-01, 4.03087646e-01, 5.83441973e-01, 1.49954510e+00,
          1.65935361e+00, 2.77215447e-02, 4.25656438e-01, 5.92208922e-01,
          5.13789356e-01, 8.14430416e-01, -1.09950721e-01,
          -2.06053197e-01, -3.55934799e-01, -2.85566717e-01,
          5.05490661e-01, 1.51238847e+00, 2.04804492e+00 ]
      - [ -2.10025024e+00, -2.03939843e+00, 8.30383122e-01,
          -8.38279352e-02, 1.71528503e-01, 4.42853421e-01,
          3.77387971e-01, 3.82693589e-01, 4.03087646e-01, 5.59611380e-01,
          1.04589379e+00, 8.43216956e-01, -8.90347213e-02,
          2.93035477e-01, 8.27220738e-01, 1.83042789e+00, 2.22455883e+00,
          9.18670893e-01, 1.29280195e-01, -1.03835233e-01,
          2.39389643e-01, 1.03064656e+00, 1.81892812e+00, 2.32222390e+00 ]
      - [ 9.69495058e-01, 7.31753170e-01, -2.87023224e-02,
          7.03995824e-01, 1.50528574e+00, 1.18237281e+00, 3.77387971e-01,
          3.82693589e-01, 4.03087646e-01, 5.11948824e-01,
          -3.32178205e-01, -1.27150655e-01, 1.80963606e-01,
          -3.46164070e-02, 2.88652301e-01, 7.71063328e-01,
          1.84156132e+00, 1.00197718e-01, -1.77514121e-01,
          -2.67993033e-01, -6.44397616e-01, -2.18117595e+00,
          -1.29636919e+00, -6.93746686e-01 ]
      - [ -2.53878522e+00, -2.89206052e+00, -5.38786650e-01,
          5.91448426e-01, -2.06886306e-01, -5.18523514e-01,
          -5.40854692e-01, -3.67479742e-01, 2.58451849e-01,
          5.35780847e-01, 1.39683139e+00, 1.74932146e+00, 1.51774541e-01,
          3.24240506e-01, 8.07636380e-01, 2.95085385e-02, 2.05115721e-01,
          -5.96610427e-01, -4.91443306e-01, -5.72857618e-01,
          -5.97882509e-01, 1.55386761e-01, 1.10604548e+00,
          8.96492362e-01 ]
      - [ -3.46110195e-01, -5.47240078e-01, 1.59222126e-01,
          4.11375523e-01, 1.15168500e+00, 1.10842168e+00, 3.77387971e-01,
          3.82693589e-01, 4.03087646e-01, 5.83441973e-01, 1.49954510e+00,
          1.86499441e+00, 1.80963606e-01, 7.06500828e-01, 8.46805096e-01,
          1.02833784e+00, 1.11038363e+00, 5.09434283e-01,
          -2.05496307e-02, -2.85581499e-01, -1.97658706e-02,
          7.18597353e-01, 8.13763559e-01, -4.60694402e-01 ]
      - [ 9.69495058e-01, 7.31753170e-01, -8.60943258e-01,
          2.31301293e-01, 1.26334846e+00, 1.18237281e+00, 3.77387971e-01,
          3.82693589e-01, 4.03087646e-01, 5.35780847e-01, 3.78256410e-01,
          -2.74954975e-01, -2.33594310e-02, -8.14239234e-02,
          -6.38652891e-02, 9.00437534e-02, 1.16261053e+00,
          8.91374126e-02, -5.19982398e-01, -4.20425415e-01,
          -4.64982063e-01, -1.74735177e+00, -1.29636919e+00,
          -6.93746686e-01 ]
      - [ -1.22317994e+00, -1.39990187e+00, -1.23679376e+00,
          4.78902340e-01, 1.44325054e+00, 1.18237281e+00, 3.77387971e-01,
          3.82693589e-01, 4.03087646e-01, 5.83441973e-01, 1.07157230e+00,
          -1.88794982e+00, -6.65517628e-01, -1.75038710e-01,
          -5.43680668e-01, -1.21829048e-01, -9.61286902e-01,
          -3.42220098e-01, -7.19755471e-01, -7.01838672e-01,
          -4.45047081e-01, 9.44992304e-02, -5.05069375e-01,
          -6.93746686e-01 ]
      - [ -2.10025024e+00, -2.46572948e+00, 1.05529882e-01,
          3.43847364e-01, -3.43363911e-01, -1.07316303e+00,
          -1.06555593e+00, -5.55020273e-01, 3.54876667e-01,
          5.59611380e-01, 1.28555846e+00, 1.96138883e+00, 1.34122694e+00,
          6.67494655e-01, 6.90130651e-01, 1.08887255e+00, 1.19742858e+00,
          5.09434283e-01, -4.19538319e-02, -2.38679171e-01,
          -7.95710534e-02, 6.95764542e-01, 1.20584905e+00,
          2.00691795e+00 ]
      - [ 5.30959964e-01, 7.31753170e-01, 1.05529882e-01, 5.91448426e-01,
          1.43704712e+00, 1.18237281e+00, 3.77387971e-01, 3.82693589e-01,
          4.03087646e-01, 5.83441973e-01, 9.94537234e-01, 4.63588238e-02,
          1.95558354e-01, 1.99420691e-01, 3.08236659e-01, 7.71063328e-01,
          1.54560804e+00, 4.65192407e-01, -2.34592274e-01,
          -2.09365293e-01, 5.33291735e-02, -1.33829400e-01,
          -1.15379262e+00, -6.93746686e-01 ]
      - [ -3.46110195e-01, -1.20908991e-01, -5.11938870e-01,
          1.86283410e-01, 1.10205674e+00, 1.07144403e+00, 3.77387971e-01,
          3.82693589e-01, 4.03087646e-01, 5.83441973e-01, 1.39683139e+00,
          6.88986421e-01, -5.98456562e-02, 2.93035477e-01,
          1.31977856e-01, 4.38120574e-01, 4.83659655e-01, 4.48955335e-02,
          -2.48861596e-01, -5.37680924e-01, -3.18791777e-01,
          4.21770126e-01, 1.27713728e+00, 1.30776107e+00 ]
      - [ -3.46110195e-01, -5.47240078e-01, 4.27686542e-01,
          3.43847364e-01, 1.12066746e+00, 1.03446853e+00, 3.77387971e-01,
          3.82693589e-01, 4.03087646e-01, 5.83441973e-01, 1.33691502e+00,
          1.01030016e+00, 2.90422291e-01, 6.90898538e-01, 5.72624862e-01,
          1.25534415e+00, 1.75451648e+00, 7.97005892e-01,
          -1.13301307e-01, -9.79725346e-02, 1.33069545e-01,
          -2.55604684e-01, -1.14666378e+00, -6.93746686e-01 ]
      - [ 5.30959964e-01, 7.31753170e-01, -8.87789369e-01,
          6.36467636e-01, -6.78354263e-01, -3.70619237e-01,
          3.77387971e-01, 3.82693589e-01, 4.03087646e-01,
          -1.79146156e-01, -1.51338220e+00, -2.23544672e-01,
          -1.91196233e-01, -5.80703139e-01, -8.34493414e-02,
          1.05177335e-01, -2.47518003e-01, -3.09038848e-01,
          -6.55542672e-01, -6.66662097e-01, -6.31107569e-01,
          -1.15369725e+00, -1.29636919e+00, -6.93746686e-01 ]
      - [ 5.30959964e-01, 3.05422097e-01, -5.55500425e-02,
          5.46430528e-01, -6.41132832e-01, -6.29452348e-01,
          3.77387971e-01, 3.82693589e-01, 4.03087646e-01, 5.83441973e-01,
          1.09725034e+00, 2.90557176e-01, 3.12314183e-01, 5.66078484e-01,
          1.51562199e-01, 7.55929768e-01, 7.44794846e-01,
          -1.09950721e-01, -4.55769569e-01, -3.96974266e-01,
          -3.18791777e-01, 3.68493438e-01, 1.27000856e+00,
          1.93837321e+00 ]
      - [ 1.40803015e+00, 1.58441496e+00, 1.32376000e-01,
          -3.88100483e-02, -2.31700450e-01, 4.79828954e-01,
          3.77387971e-01, 3.82693589e-01, 4.03087646e-01, 5.83441973e-01,
          6.86396837e-01, 1.17048077e-01, 4.87448156e-01, 6.36289656e-01,
          3.08236659e-01, 1.14940774e+00, 1.00592947e+00,
          -1.21011026e-01, -2.20322728e-01, -4.02836978e-01,
          -1.26086175e-01, 5.43545425e-01, 8.56536388e-01,
          3.89261007e-01 ]
      - [ 9.24248919e-02, -1.20908991e-01, -2.97168344e-01,
          3.21338415e-01, -9.32698369e-01, -3.33643705e-01,
          3.77387971e-01, 3.82693589e-01, 4.03087646e-01, 5.35780847e-01,
          5.49445808e-01, -7.57403523e-02, 2.02855512e-01,
          2.54029334e-01, -1.71578735e-01, 5.13789356e-01,
          5.18477738e-01, -3.75401348e-01, -5.05712867e-01,
          -5.37680924e-01, -3.98531944e-01, 1.09720945e-01,
          7.63861775e-01, 6.77149117e-01 ]
      - [ 1.40803015e+00, 1.37124944e+00, -1.85620191e-03,
          1.18755236e-01, -1.05676901e+00, -7.03403413e-01,
          3.77387971e-01, 3.82693589e-01, 4.03087646e-01, 5.83441973e-01,
          1.33691502e+00, 1.08741534e+00, 3.12314183e-01, 6.28488541e-01,
          1.80938572e-01, 5.74324608e-01, 6.22931898e-01,
          -1.87373847e-01, -5.91329873e-01, -4.90778744e-01,
          -3.91887009e-01, 2.39107311e-01, 1.24862194e+00,
          2.36335087e+00 ]
      - [ 5.30959964e-01, 5.18587649e-01, 2.12915972e-01, 3.88866574e-01,
          -7.27982163e-01, -1.11788325e-01, 3.77387971e-01,
          3.82693589e-01, 4.03087646e-01, 3.45133454e-01,
          -7.68710256e-01, -1.01445504e-01, 2.02855512e-01,
          -1.75038710e-01, 3.08236659e-01, 7.40796208e-01,
          4.14023548e-01, 6.70164749e-02, -4.20095831e-01,
          -3.96974266e-01, -3.52016836e-01, -1.11564255e+00,
          -1.29636919e+00, -6.93746686e-01 ]
      - [ 5.30959964e-01, 7.31753170e-01, -6.99864924e-01,
          7.03995824e-01, -1.23046768e+00, -2.96668172e-01,
          3.77387971e-01, 3.82693589e-01, 4.03087646e-01, 5.83441973e-01,
          1.26843977e+00, 7.01838791e-01, 3.50187048e-02, 5.97283483e-01,
          1.22185834e-01, 1.35444939e-01, 4.48841602e-01,
          -3.09038848e-01, -7.91102946e-01, -6.13897085e-01,
          -5.31432390e-01, 1.62997618e-01, 1.07753015e+00,
          2.11658955e+00 ]
      - [ 5.30959964e-01, 5.18587649e-01, -2.70320624e-01,
          -4.66485351e-01, -2.31700450e-01, 6.27733231e-01,
          3.77387971e-01, 3.82693589e-01, 4.03087646e-01, 5.83441973e-01,
          1.12292886e+00, 4.64066654e-01, 3.19611341e-01, 4.49060053e-01,
          1.44720860e-02, 6.49993360e-01, 6.40340686e-01,
          -2.31615737e-01, -5.62790751e-01, -5.31818211e-01,
          -3.18791777e-01, 2.54329264e-01, 1.08465886e+00,
          1.26663435e+00 ]
      - [ 5.30959964e-01, 5.18587649e-01, -9.14637089e-01,
          7.03995824e-01, -7.27982163e-01, 3.68900150e-01,
          3.77387971e-01, 3.82693589e-01, 4.03087646e-01, 3.68964016e-01,
          -1.23948026e+00, -3.19938689e-01, -3.79539654e-02,
          -5.80703139e-01, -2.30331779e-01, -6.12938330e-02,
          -9.08370018e-02, -2.86917925e-01, -7.26890147e-01,
          -6.78387702e-01, -7.30782926e-01, -1.62557650e+00,
          -1.29636919e+00, -6.93746686e-01 ]
      - [ 5.30959964e-01, 7.31753170e-01, -3.24014455e-01,
          5.68939447e-01, -5.72894216e-01, 3.61159928e-02,
          3.77387971e-01, 3.82693589e-01, 4.03087646e-01, 5.83441973e-01,
          8.06229115e-01, 1.29900470e-01, 3.70692313e-01, 1.60414308e-01,
          1.71146542e-01, 9.37534988e-01, 9.88520741e-01, 1.17142852e-02,
          -3.41613472e-01, -4.61464882e-01, -2.65631527e-01,
          1.07786814e-02, -3.48235220e-01, -6.93746686e-01 ]
      - [ 5.30959964e-01, 7.31753170e-01, -3.24014455e-01,
          1.86283410e-01, -7.27982163e-01, 2.94949085e-01,
          3.77387971e-01, 3.82693589e-01, 4.03087646e-01, 2.49809757e-01,
          -1.45346630e+00, -1.52855799e-01, -9.63318795e-02,
          -6.27510428e-01, -1.61786720e-01, 1.50578976e-01,
          -7.34282359e-02, -2.31615737e-01, -6.19868934e-01,
          -6.60799265e-01, -5.77947497e-01, -1.46574640e+00,
          -1.29636919e+00, -6.93746686e-01 ]
      - [ 1.40803015e+00, 1.37124944e+00, -4.58246648e-01,
          2.98829466e-01, -1.22426403e+00, -1.33199620e+00,
          3.77387971e-01, 3.82693589e-01, 4.03087646e-01, 5.83441973e-01,
          1.25988042e+00, 9.71742272e-01, 1.59072131e-01, 6.05085135e-01,
          3.86573732e-01, 5.74324608e-01, 6.22931898e-01,
          -1.54192612e-01, -6.98351264e-01, -4.55601990e-01,
          -4.11822021e-01, 2.16274515e-01, 1.14168966e+00,
          2.11658955e+00 ]
      - [ 9.69495058e-01, 7.31753170e-01, -2.43474483e-01,
          2.87181213e-02, -8.33442152e-01, 7.30937198e-02,
          3.77387971e-01, 3.82693589e-01, 4.03087646e-01, 5.35780847e-01,
          -1.86667338e-01, -1.14297882e-01, 2.39341736e-01,
          -2.06243724e-01, 1.51562199e-01, 5.74324608e-01,
          5.18477738e-01, -6.57088384e-02, -3.55883032e-01,
          -4.02836978e-01, -2.78921604e-01, -2.25161031e-01,
          -7.61707127e-01, -6.93746686e-01 ]
      - [ -2.97732019e+00, -3.10522604e+00, -7.80403316e-01,
          3.43847364e-01, -1.34213114e+00, -1.77570689e+00,
          2.46212661e-01, 1.95153043e-01, 3.06665689e-01, 4.88118261e-01,
          2.75543272e-01, -3.07086319e-01, 1.31267942e-02,
          -1.04827560e-01, -3.47837538e-01, 1.50578976e-01,
          4.84347120e-02, -8.84181976e-01, -7.19755471e-01,
          -7.89780498e-01, -6.11172557e-01, -1.10996604e-01,
          -7.02109411e-02, -5.84075034e-01 ]
      - [ 5.30959964e-01, 7.31753170e-01, -8.07251036e-01,
          1.86283410e-01, -7.03168392e-01, 2.57973582e-01,
          3.77387971e-01, 3.82693589e-01, 4.03087646e-01,
          -7.27256298e-01, -2.12966299e+00, -1.84987143e-01,
          -3.51735681e-01, -7.28926599e-01, -2.00955406e-01,
          1.43749602e-02, -3.34562898e-01, -3.75401348e-01,
          -7.19755471e-01, -6.43210948e-01, -8.83618355e-01,
          -1.39724779e+00, -1.29636919e+00, -6.93746686e-01 ]
      - [ 5.30959964e-01, 3.05422097e-01, -8.07251036e-01,
          6.13958716e-01, -8.58256280e-01, -2.96668172e-01,
          3.77387971e-01, 3.82693589e-01, 4.03087646e-01, 4.88118261e-01,
          -5.29045641e-01, -2.55676001e-01, 1.51774541e-01,
          -3.62268299e-01, -9.32416618e-02, 1.05177335e-01,
          -7.34282359e-02, -5.63429177e-01, -6.62677526e-01,
          -5.84583223e-01, -5.71302354e-01, -7.42705822e-01,
          -1.05398905e+00, -6.93746686e-01 ]
      - [ 9.24248919e-02, 9.22565460e-02, -7.80403316e-01,
          7.26504743e-01, -9.82326627e-01, -9.25258756e-01,
          3.77387971e-01, 3.82693589e-01, 4.03087646e-01, 5.35780847e-01,
          4.46732163e-01, -1.20724075e-01, 1.73666447e-01,
          -3.41163110e-03, -2.10747436e-01, 1.95980161e-01,
          2.74751842e-01, -5.85550129e-01, -5.05712867e-01,
          -6.84250414e-01, -4.78272140e-01, 1.02110088e-01,
          2.64843851e-01, -2.41351098e-01 ]
      - [ -2.97732019e+00, -2.89206052e+00, -7.26711094e-01,
          4.33884472e-01, -1.70813882e+00, -2.84801269e+00,
          1.15037374e-01, 1.95153043e-01, 4.03087646e-01, 5.83441973e-01,
          1.08013165e+00, 3.61246437e-01, -8.76489747e-03,
          2.61830479e-01, -3.18461180e-01, 1.43749602e-02,
          -1.43063828e-01, -6.40852332e-01, -9.76606727e-01,
          -7.31152534e-01, -6.84267819e-01, -6.53307885e-02,
          9.27824795e-01, 1.43114173e+00 ]
      - [ 5.30959964e-01, 5.18587649e-01, -7.53557205e-01,
          6.58976555e-01, -9.07884598e-01, -2.59690434e-01,
          3.77387971e-01, 3.82693589e-01, 4.03087646e-01, 3.68964016e-01,
          -8.71423364e-01, -2.62102216e-01, -8.76489747e-03,
          -4.16877180e-01, -2.10747436e-01, 4.46425676e-02,
          3.61796707e-01, -5.30247629e-01, -5.69925666e-01,
          -6.13897085e-01, -5.11497200e-01, -2.02328011e-01,
          -6.69032454e-01, -6.93746686e-01 ]
      - [ 5.30959964e-01, 5.18587649e-01, -8.23961645e-02,
          -1.96373999e-01, -4.30213213e-01, 3.31924617e-01,
          3.77387971e-01, 3.82693589e-01, 4.03087646e-01,
          -1.23293400e-02, -1.27371764e+00, -5.05147595e-03,
          1.07991152e-01, -3.38864654e-01, 1.61354229e-01,
          4.83521760e-01, 2.39933774e-01, -3.25275958e-02,
          -3.91556770e-01, -4.49739307e-01, -5.97882509e-01,
          -1.43530262e+00, -1.29636919e+00, -6.93746686e-01 ]
      - [ 1.84656489e+00, 2.01074600e+00, -4.04552817e-01,
          2.98829466e-01, -6.47336662e-01, -4.81548011e-01,
          3.77387971e-01, 3.82693589e-01, 4.03087646e-01, 5.11948824e-01,
          3.58786285e-02, -5.64613938e-02, 1.44477382e-01,
          -2.06243724e-01, -1.71578735e-01, 3.01916569e-01,
          4.66250896e-01, -6.07670724e-01, -4.84308630e-01,
          -6.60799265e-01, -4.98207331e-01, 1.07786814e-02,
          7.23655596e-02, -6.93746686e-01 ]
      - [ 5.30959964e-01, 7.31753170e-01, -4.04552817e-01,
          6.20917836e-03, -6.96964562e-01, 1.84020311e-01,
          3.77387971e-01, 3.82693589e-01, 4.03087646e-01, 1.54486060e-01,
          -1.51338220e+00, -1.84987143e-01, -6.71428144e-02,
          -5.02690613e-01, -4.42809463e-02, 1.20311365e-01,
          -3.69380951e-01, -3.20099175e-01, -6.19868934e-01,
          -6.54936552e-01, -7.77298033e-01, -1.73212981e+00,
          -1.29636919e+00, -6.93746686e-01 ]
      - [ 5.30959964e-01, 5.18587649e-01, -1.85620191e-03,
          1.63773119e-01, -8.76866996e-01, -8.14332187e-01,
          3.77387971e-01, 3.82693589e-01, 4.03087646e-01, 5.83441973e-01,
          1.22564256e+00, 7.85380423e-01, 3.92583787e-01, 5.89482367e-01,
          2.98444331e-01, 1.01320374e+00, 9.71111417e-01,
          -4.35879007e-02, -2.98804879e-01, -3.67660403e-01,
          -2.85566717e-01, 3.22827876e-01, 1.72169119e-01,
          -6.93746686e-01 ]
      - [ 5.30959964e-01, 5.18587649e-01, -6.99864924e-01,
          3.88866574e-01, -8.45849037e-01, 7.30937198e-02,
          3.77387971e-01, 3.82693589e-01, 4.03087646e-01, 3.21302891e-01,
          -1.11964786e+00, -3.07086319e-01, 5.82963647e-03,
          -4.48081970e-01, 7.32251182e-02, 2.71648943e-01,
          -1.60473123e-01, -3.09038848e-01, -7.05485940e-01,
          -6.84250414e-01, -6.24462605e-01, -1.52663410e+00,
          -1.29636919e+00, -6.93746686e-01 ]
      - [ 5.30959964e-01, 5.18587649e-01, -8.60943258e-01,
          3.66356283e-01, -5.72894216e-01, 4.79828954e-01,
          3.77387971e-01, 3.82693589e-01, 4.03087646e-01, 1.30655482e-01,
          -1.40210974e+00, -2.49249831e-01, -5.98456562e-02,
          -5.02690613e-01, -5.40729724e-02, 7.49101788e-02,
          -2.47518003e-01, -2.53736675e-01, -6.84081733e-01,
          -6.08034194e-01, -8.57038200e-01, -1.80062842e+00,
          -1.29636919e+00, -6.93746686e-01 ]
      - [ -7.84645319e-01, -9.73571122e-01, -1.07571542e+00,
          6.36467636e-01, -9.69919741e-01, -7.48105943e-02,
          3.77387971e-01, 3.82693589e-01, 4.03087646e-01, 3.21302891e-01,
          -1.00837493e+00, -4.03480351e-01, -2.05790773e-01,
          -6.66516542e-01, -3.57629865e-01, -2.58033067e-01,
          -2.99744844e-01, -7.51456678e-01, -8.05372477e-01,
          -7.25289881e-01, -6.84267819e-01, -4.76322442e-01,
          -8.82897258e-01, -6.93746686e-01 ]
      - [ 9.24248919e-02, 3.05422097e-01, -2.70320624e-01,
          1.63773119e-01, -5.97708404e-01, 2.94949085e-01,
          3.77387971e-01, 3.82693589e-01, 4.03087646e-01, 5.35780847e-01,
          -4.17772651e-01, -1.46429226e-01, 1.51774541e-01,
          -2.76454866e-01, 9.28091705e-02, 3.32184166e-01,
          3.26978654e-01, -2.86917925e-01, -5.19982398e-01,
          -5.20092607e-01, -4.38402146e-01, -5.77199310e-02,
          -3.12591106e-01, -6.93746686e-01 ]
      - [ 1.40803015e+00, 1.37124944e+00, -6.19324982e-01,
          3.88866574e-01, -5.60487330e-01, -3.70619237e-01,
          3.77387971e-01, 3.82693589e-01, 4.03087646e-01, 4.40457135e-01,
          7.80550599e-01, 9.13429335e-02, 2.90422291e-01, 3.00836623e-01,
          -8.34493414e-02, 4.38120574e-01, 4.66250896e-01,
          -3.86461973e-01, -4.84308630e-01, -5.78720331e-01,
          -4.51692015e-01, 1.24942884e-01, 5.71383357e-01,
          -2.82477975e-01 ]
      - [ 5.30959964e-01, 7.31753170e-01, -6.19324982e-01,
          -1.96373999e-01, -4.92248386e-01, 4.79828954e-01,
          3.77387971e-01, 3.82693589e-01, 4.03087646e-01, 1.78316623e-01,
          -1.44490695e+00, -2.94233561e-01, -3.79539654e-02,
          -6.27510428e-01, -1.81371063e-01, 7.49101788e-02,
          -4.21607792e-01, -2.75857270e-01, -7.26890147e-01,
          -7.01838672e-01, -5.58012307e-01, -1.42769170e+00,
          -1.29636919e+00, -6.93746686e-01 ]
      - [ 5.30959964e-01, 3.05422097e-01, -4.31400537e-01,
          7.37373531e-02, -9.88530099e-01, -1.33199620e+00,
          3.77387971e-01, 3.82693589e-01, 4.03087646e-01, 5.83441973e-01,
          1.20852327e+00, 5.92592418e-01, 2.90422291e-01, 5.66078484e-01,
          -5.40729724e-02, 6.65126979e-01, 6.75158739e-01,
          -2.75857270e-01, -5.05712867e-01, -5.20092607e-01,
          -3.65306884e-01, 2.31496230e-01, 9.84855294e-01,
          1.21179843e+00 ]
      - [ 5.30959964e-01, 3.05422097e-01, 1.05529882e-01, 3.66356283e-01,
          -6.03911817e-01, 4.42853421e-01, 3.77387971e-01,
          3.82693589e-01, 4.03087646e-01, 2.73640305e-01,
          -1.14532590e+00, -1.79038588e-02, -8.76489747e-03,
          -2.76454866e-01, 3.27821016e-01, 8.31598580e-01,
          4.48841602e-01, 1.22318663e-01, -3.63017678e-01,
          -4.67327565e-01, -3.38726759e-01, -8.87313902e-01,
          -1.29636919e+00, -6.93746686e-01 ]
      - [ 9.24248919e-02, 3.05422097e-01, -5.11938870e-01,
          6.81485534e-01, -1.94479421e-01, 2.57973582e-01,
          3.77387971e-01, 3.82693589e-01, 4.03087646e-01, 1.30655482e-01,
          -1.22236097e+00, -5.64613938e-02, 1.73666447e-01,
          -2.99858510e-01, 2.29899287e-01, 7.10528612e-01,
          4.48841602e-01, 6.70164749e-02, -4.91443306e-01,
          -4.61464882e-01, -4.25112069e-01, -7.35094845e-01,
          -1.16092145e+00, -6.93746686e-01 ]
      - [ 5.30959964e-01, 5.18587649e-01, 7.86821619e-02, 4.33884472e-01,
          -1.03195488e+00, -1.22106743e+00, 3.77387971e-01,
          3.82693589e-01, 4.03087646e-01, 5.83441973e-01, 9.26061451e-01,
          1.94163144e-01, 3.34206104e-01, 3.94451410e-01, 4.38484550e-02,
          7.86197364e-01, 8.49248469e-01, -2.42676035e-01,
          -3.70152563e-01, -4.73190278e-01, -2.12471470e-01,
          3.22827876e-01, 9.70597625e-01, 1.03358197e+00 ]
      - [ 5.30959964e-01, 5.18587649e-01, -2.97168344e-01,
          3.21338415e-01, -8.02424610e-01, -3.78350653e-02,
          3.77387971e-01, 3.82693589e-01, 4.03087646e-01, 3.92794579e-01,
          -7.25913048e-01, -7.57403523e-02, 2.02855512e-01,
          -3.38864654e-01, 1.41770169e-01, 3.92719388e-01,
          3.09569895e-01, -5.46485372e-02, -4.62904245e-01,
          -4.38013703e-01, -4.18466955e-01, -7.35094845e-01,
          -1.29636919e+00, -6.93746686e-01 ]
      - [ 1.40803015e+00, 1.37124944e+00, -4.58246648e-01,
          7.26504743e-01, -9.45105612e-01, -7.40378916e-01,
          3.77387971e-01, 3.82693589e-01, 4.03087646e-01, 5.83441973e-01,
          1.28555846e+00, 7.08265007e-01, 3.12314183e-01, 5.81681252e-01,
          1.61354229e-01, 8.16465020e-01, 6.40340686e-01,
          -2.09494784e-01, -6.05599403e-01, -4.84915853e-01,
          -3.65306884e-01, 2.46718168e-01, 1.03475714e+00,
          9.65037167e-01 ]
      - [ 5.30959964e-01, 9.22565460e-02, -5.11938870e-01,
          -8.38279352e-02, -8.76866996e-01, -8.51307690e-01,
          3.77387971e-01, 3.82693589e-01, 4.03087646e-01, 5.83441973e-01,
          1.25132060e+00, 5.99018574e-01, 1.80963606e-01, 6.51892364e-01,
          3.37613016e-01, 5.89458168e-01, 6.40340686e-01,
          -1.54192612e-01, -5.91329873e-01, -4.67327565e-01,
          -4.58337128e-01, 2.39107311e-01, 1.09178782e+00,
          2.23997021e+00 ]
      - [ -2.53878522e+00, -2.67889500e+00, -5.11938870e-01,
          5.46430528e-01, -1.54064369e+00, -3.92031622e+00,
          -8.03205311e-01, -1.79939210e-01, 3.54876667e-01,
          4.16625142e-01, 5.58005154e-01, 2.58425832e-01, 3.50187048e-02,
          -1.20430067e-01, -3.47837538e-01, 2.71648943e-01,
          1.70297652e-01, -8.06758881e-01, -6.69812202e-01,
          -7.78054893e-01, -5.44722438e-01, -1.96651965e-02,
          4.71579820e-01, 1.15081817e-01 ]
      - [ 5.30959964e-01, 5.18587649e-01, -8.07251036e-01,
          2.08792344e-01, -2.31700450e-01, 6.27733231e-01,
          3.77387971e-01, 3.82693589e-01, 4.03087646e-01,
          -1.79146156e-01, -1.61609590e+00, -2.74954975e-01,
          -1.91196233e-01, -5.65100610e-01, -2.49916121e-01,
          4.46425676e-02, -4.73835111e-01, -3.75401348e-01,
          -7.19755471e-01, -7.31152534e-01, -7.70652890e-01,
          -1.65602028e+00, -1.29636919e+00, -6.93746686e-01 ]
      - [ 9.69495058e-01, 5.18587649e-01, -1.09242283e-01,
          -2.58235288e+00, -4.86044943e-01, -4.95564413e+00,
          -3.82027602e+00, -3.67479742e-01, -3.08168605e-02,
          -7.27256298e-01, -2.20905215e-01, 3.16262335e-01,
          2.77215447e-02, 4.49060053e-01, -1.22618027e-01,
          4.98655796e-01, 3.44387949e-01, -5.19187272e-01,
          -5.98464727e-01, -6.08034194e-01, -4.18466955e-01,
          -2.72760522e-02, 3.57518584e-01, -4.33276474e-01 ]
      - [ 5.30959964e-01, 9.22565460e-02, -2.70320624e-01,
          6.81485534e-01, -4.42620099e-01, 4.42853421e-01,
          3.77387971e-01, 3.82693589e-01, 4.03087646e-01, 4.64287698e-01,
          -6.06080711e-01, -1.52855799e-01, 1.37180224e-01,
          -4.40280825e-01, 1.02601483e-01, 1.95980161e-01,
          8.32527727e-02, -1.87373847e-01, -5.69925666e-01,
          -4.96641457e-01, -5.64657450e-01, -6.20930552e-01,
          -1.15379262e+00, -6.93746686e-01 ]
      - [ 9.69495058e-01, 9.44918692e-01, 2.66608208e-01, 7.26504743e-01,
          -9.26494896e-01, -1.48763850e-01, 3.77387971e-01,
          3.82693589e-01, 4.03087646e-01, 5.83441973e-01,
          -4.97163236e-02, -8.85927305e-02, 3.56097579e-01,
          -9.70264226e-02, 3.08236659e-01, 7.10528612e-01,
          5.01068950e-01, -2.14672908e-02, -4.77173775e-01,
          -4.02836978e-01, -3.45371902e-01, -7.27483869e-01,
          -1.29636919e+00, -6.93746686e-01 ]
      - [ 9.69495058e-01, 1.15808380e+00, 1.32376000e-01, 3.66356283e-01,
          -3.92992198e-01, 7.38659859e-01, 3.77387971e-01,
          3.82693589e-01, 4.03087646e-01, -4.65117246e-01,
          -1.72736883e+00, 6.56377822e-02, -3.06565892e-02,
          -3.07659656e-01, 3.08236659e-01, 5.89458168e-01,
          7.62203634e-01, 2.10802421e-01, -2.84535557e-01,
          -4.55601990e-01, -9.30133462e-01, -1.96045840e+00,
          -1.29636919e+00, -6.93746686e-01 ]
      - [ 5.30959964e-01, 7.31753170e-01, -5.65632761e-01,
          3.88866574e-01, -5.60487330e-01, 4.05875683e-01,
          3.77387971e-01, 3.82693589e-01, 4.03087646e-01, 2.25979179e-01,
          -1.35075271e+00, -2.62102216e-01, 5.82963647e-03,
          -6.11907899e-01, -1.61786720e-01, 7.49101788e-02,
          -3.86789709e-01, -3.97522300e-01, -7.69698739e-01,
          -6.19759798e-01, -5.31432390e-01, -1.04714394e+00,
          -1.29636919e+00, -6.93746686e-01 ]
      - [ 9.69495058e-01, 7.31753170e-01, -6.73018813e-01,
          -6.13189936e-02, -6.90761149e-01, -3.78350653e-02,
          3.77387971e-01, 3.82693589e-01, 4.03087646e-01, 5.83441973e-01,
          6.00802362e-01, -8.85927305e-02, 1.88260764e-01,
          2.30625466e-01, -3.38045508e-01, 1.65712550e-01,
          -5.60189448e-02, -5.30247629e-01, -7.26890147e-01,
          -7.01838672e-01, -5.44722438e-01, 5.64442724e-02,
          9.49211240e-01, 1.26663435e+00 ]
      - [ 5.30959964e-01, 3.05422097e-01, -3.77706707e-01,
          -6.69068515e-01, -9.69919741e-01, -9.25258756e-01,
          3.77387971e-01, 3.82693589e-01, 4.03087646e-01, 5.83441973e-01,
          1.22564256e+00, 7.46822894e-01, 2.02855512e-01, 7.37705827e-01,
          4.25742418e-01, 5.74324608e-01, 7.27385521e-01,
          -1.09950721e-01, -6.48407996e-01, -4.02836978e-01,
          -3.98531944e-01, 3.22827876e-01, 1.24862194e+00,
          2.18513441e+00 ]
      - [ 5.30959964e-01, 5.18587649e-01, 1.59222126e-01, 3.66356283e-01,
          -1.22426403e+00, -1.99756455e+00, 3.77387971e-01,
          3.82693589e-01, 4.03087646e-01, 5.83441973e-01, 1.21708262e+00,
          5.79739630e-01, 2.68530816e-01, 6.75295770e-01, 2.49483630e-01,
          9.52669024e-01, 7.62203634e-01, -1.09950721e-01,
          -4.98578191e-01, -4.14562553e-01, -2.45696530e-01,
          2.54329264e-01, 1.17733371e+00, 1.47226870e+00 ]
      - [ 5.30959964e-01, 7.31753170e-01, -3.77706707e-01,
          4.33884472e-01, -7.90017724e-01, -2.22714916e-01,
          3.77387971e-01, 3.82693589e-01, 4.03087646e-01, 2.73640305e-01,
          -1.23092031e+00, -1.72134370e-01, -1.03629038e-01,
          -5.18293083e-01, -1.22618027e-01, 1.05177335e-01,
          -9.08370018e-02, -3.20099175e-01, -6.69812202e-01,
          -5.84583223e-01, -6.04527414e-01, -1.32113826e+00,
          -1.29636919e+00, -6.93746686e-01 ]
      - [ 5.30959964e-01, 5.18587649e-01, -5.38786650e-01,
          2.98829466e-01, -9.57512498e-01, -1.18409193e+00,
          3.77387971e-01, 3.82693589e-01, 4.03087646e-01, 5.35780847e-01,
          -1.69548646e-01, -3.32791477e-01, 1.15288310e-01,
          -3.46666038e-01, -3.18461180e-01, -6.12938330e-02,
          -1.60473123e-01, -9.17363584e-01, -6.27003610e-01,
          -7.25289881e-01, -6.44397616e-01, -2.17549950e-01,
          -5.47842383e-01, -6.93746686e-01 ]
      - [ 9.69495058e-01, 3.05422097e-01, 2.39762083e-01,
          -2.73991680e+00, -3.61974597e-01, -4.10519600e+00,
          -1.59026492e+00, 3.82693589e-01, 3.06665689e-01,
          -8.38224664e-02, 3.58786285e-02, 6.56855106e-01,
          2.61233658e-01, 6.75295770e-01, 1.31977856e-01, 9.82936144e-01,
          8.14430416e-01, -2.42676035e-01, -3.55883032e-01,
          -4.84915853e-01, -3.71951818e-01, -1.96651965e-02,
          -1.55756935e-01, -6.93746686e-01 ]
      - [ 5.30959964e-01, 9.44918692e-01, -6.19324982e-01,
          7.37373531e-02, -8.52052867e-01, -1.11788325e-01,
          3.77387971e-01, 3.82693589e-01, 4.03087646e-01, 2.02148616e-01,
          -1.52194214e+00, -2.81381160e-01, -2.34979630e-01,
          -5.49498141e-01, -4.42809463e-02, -1.67230234e-01,
          -4.73835111e-01, -5.52368522e-01, -8.12507391e-01,
          -6.54936552e-01, -6.90912724e-01, -7.12261915e-01,
          -1.04686022e+00, -6.93746686e-01 ]
      - [ 5.30959964e-01, 5.18587649e-01, 5.35072625e-01, 2.53810227e-01,
          -1.30490994e+00, -1.03618753e+00, 3.77387971e-01,
          3.82693589e-01, 4.03087646e-01, 5.83441973e-01, 1.30267763e+00,
          6.18297160e-01, 3.92583787e-01, 5.81681252e-01, 2.69067973e-01,
          9.67802584e-01, 1.00592947e+00, -7.67694786e-02,
          -1.91783652e-01, -3.14895362e-01, -1.79246426e-01,
          4.90268737e-01, 7.21088707e-01, 6.02459759e-02 ]
      - [ 5.30959964e-01, 3.05422097e-01, -6.46171093e-01,
          4.11375523e-01, -8.64459753e-01, -5.18523514e-01,
          3.77387971e-01, 3.82693589e-01, 4.03087646e-01, 5.83441973e-01,
          1.24276125e+00, 6.11870944e-01, 2.83125132e-01, 5.03668964e-01,
          -3.38045508e-01, -7.59069342e-04, 1.70297652e-01,
          -4.97066349e-01, -6.76946878e-01, -2.91444212e-01,
          -1.92536488e-01, 1.62997618e-01, 1.17733371e+00,
          1.89724624e+00 ]
      - [ 9.69495058e-01, 7.31753170e-01, -6.99864924e-01,
          -1.41187298e+00, -8.83070469e-01, -4.25310040e+00,
          -2.11497378e+00, 7.61251152e-03, 4.03087646e-01,
          2.25979179e-01, 3.09781164e-01, 4.19082910e-01,
          -5.98456562e-02, 5.11470079e-01, -2.79292494e-01,
          -5.60708702e-01, -2.82336056e-01, -5.96610427e-01,
          -9.90876079e-01, -4.84915853e-01, -2.39051595e-01,
          7.92772919e-02, 7.85248160e-01, 9.92455125e-01 ]
      - [ 9.69495058e-01, 9.44918692e-01, -1.36088401e-01,
          2.31301293e-01, -5.54283559e-01, 4.79828954e-01,
          3.77387971e-01, 3.82693589e-01, 4.03087646e-01, 4.16625142e-01,
          -8.45745385e-01, 2.06536744e-02, 1.73666447e-01,
          -4.40280825e-01, 2.42641121e-02, 4.83521760e-01,
          3.09569895e-01, 3.54588032e-01, 6.50675967e-02,
          -3.50071937e-01, -2.72276670e-01, -8.26426268e-01,
          -1.29636919e+00, -6.93746686e-01 ]
      - [ 9.24248919e-02, 5.18587649e-01, -2.87023224e-02,
          6.36467636e-01, -5.60487330e-01, 4.05875683e-01,
          3.77387971e-01, 3.82693589e-01, 4.03087646e-01, 3.68964016e-01,
          -1.17100441e+00, -5.64613938e-02, 1.00693993e-01,
          -6.82119071e-01, -3.08668852e-01, 1.05177335e-01,
          3.26978654e-01, -3.53280425e-01, -8.47624466e-02,
          -1.74188554e-01, -4.38402146e-01, 1.40164822e-01,
          -2.55560488e-01, -6.93746686e-01 ]
      - [ 5.30959964e-01, 5.18587649e-01, 1.86068237e-01, 5.01412630e-01,
          -9.76123214e-01, 3.61159928e-02, 3.77387971e-01,
          3.82693589e-01, 4.03087646e-01, 2.49809757e-01,
          -1.29083681e+00, 7.80129014e-03, 1.22585468e-01,
          -5.96305370e-01, -4.42809463e-02, 2.41381347e-01,
          1.52888879e-01, 1.99741781e-01, -3.48189548e-02,
          -4.26288128e-01, -4.84917253e-01, -1.16891921e+00,
          -1.29636919e+00, -6.93746686e-01 ]
      - [ 5.30959964e-01, 5.18587649e-01, -1.85620191e-03,
          3.21338415e-01, -8.14831495e-01, -8.59537220e-04,
          3.77387971e-01, 3.82693589e-01, 4.03087646e-01, 5.83441973e-01,
          1.14860737e+00, 4.89771783e-01, 2.61233658e-01, 5.73880076e-01,
          -3.38045508e-01, 2.95085385e-02, 4.84347120e-02,
          -3.86461973e-01, -7.41159678e-01, -2.09365293e-01,
          -5.29911257e-02, 3.22827876e-01, 1.18446243e+00,
          2.00691795e+00 ]
      - [ 5.30959964e-01, 5.18587649e-01, -4.58246648e-01,
          2.76319176e-01, -6.90761149e-01, -1.85739383e-01,
          3.77387971e-01, 3.82693589e-01, 4.03087646e-01,
          -2.02976719e-01, -1.36787188e+00, -2.43300516e-02,
          -2.20385090e-01, -7.44529068e-01, -1.61786720e-01,
          3.01916569e-01, -5.60189448e-02, 3.43527734e-01,
          -2.06053197e-01, -5.96308649e-01, -6.44397616e-01,
          -1.47335744e+00, -1.29636919e+00, -6.93746686e-01 ]
      - [ -1.66171503e+00, -1.61306739e+00, -7.53557205e-01,
          3.66356283e-01, -1.01334417e+00, -1.62780261e+00,
          -2.78496325e-01, 1.95153043e-01, 1.13818936e-01,
          3.68964016e-01, 2.15626866e-01, -2.68528402e-01,
          1.15288310e-01, -1.12628929e-01, -9.05990303e-01,
          -3.33701849e-01, -4.04199004e-01, -9.72665787e-01,
          -8.33911598e-01, -4.84915853e-01, -5.11497200e-01,
          -1.33829400e-01, 3.57518584e-01, -1.31679416e-01 ]
      - [ 9.69495058e-01, 3.05422097e-01, -3.50860566e-01,
          -3.41519451e+00, -3.86788368e-01, -4.88169098e+00,
          -3.16439176e+00, 3.82693589e-01, 2.10240886e-01,
          -5.99918962e-02, -6.68350086e-02, 7.33970165e-01,
          6.42077699e-02, 6.90898538e-01, -5.11225825e-03,
          -3.10266782e-02, 1.00662060e-01, -3.20099175e-01,
          -4.84308630e-01, -2.32816458e-01, -1.92536488e-01,
          -2.40382746e-01, 2.57715017e-01, -6.93746686e-01 ]
      - [ 5.30959964e-01, 3.05422097e-01, -5.65632761e-01,
          3.43847364e-01, -9.69919741e-01, -6.66427851e-01,
          3.77387971e-01, 3.82693589e-01, 4.03087646e-01, 5.83441973e-01,
          1.30267763e+00, 5.86165845e-01, 3.70692313e-01, 5.42675078e-01,
          -3.96798253e-01, 9.00437534e-02, 3.10259406e-02,
          -5.52368522e-01, -7.05485940e-01, -2.32816458e-01,
          -1.65956363e-01, 2.23885372e-01, 1.17733371e+00,
          1.89724624e+00 ]
      - [ 9.69495058e-01, 9.44918692e-01, -8.23961645e-02,
          5.23921609e-01, -6.41132832e-01, 1.10069253e-01,
          3.77387971e-01, 3.82693589e-01, 4.03087646e-01, 4.16625142e-01,
          -6.83115840e-01, -1.14776678e-02, 2.61233658e-01,
          -5.33895612e-01, 5.36407717e-02, 5.59190571e-01,
          5.70704520e-01, 3.21406782e-01, 8.64717960e-02,
          -2.91444212e-01, -2.72276670e-01, -5.90486646e-01,
          -1.16092145e+00, -6.93746686e-01 ]
      - [ 5.30959964e-01, 7.31753170e-01, 7.86821619e-02, 6.81485534e-01,
          -6.72150433e-01, -3.78350653e-02, 3.77387971e-01,
          3.82693589e-01, 4.03087646e-01, -1.23293400e-02,
          -1.51338220e+00, -8.21665451e-02, -8.17373469e-02,
          -7.13324070e-01, -8.34493414e-02, 4.53254163e-01,
          2.39933774e-01, 1.99741781e-01, -1.56109914e-01,
          -4.73190278e-01, -4.58337128e-01, -1.13847542e+00,
          -1.29636919e+00, -6.93746686e-01 ]
      - [ 5.30959964e-01, 5.18587649e-01, 1.86068237e-01, 5.23921609e-01,
          -5.91504931e-01, 1.84020311e-01, 3.77387971e-01,
          3.82693589e-01, 4.03087646e-01, 5.83441973e-01, 9.77418005e-01,
          3.16262335e-01, 4.14475709e-01, 6.59693539e-01,
          -8.34493414e-02, 5.28922915e-01, 6.57749414e-01,
          -4.35879007e-02, -4.77173775e-01, -7.45213702e-02,
          1.06489420e-01, 4.59824860e-01, 1.30565262e+00, 2.17142558e+00 ]
      - [ -7.84645319e-01, -1.39990187e+00, 9.37769234e-01,
          -1.79452908e+00, -2.69449902e+00, -7.80279493e+00,
          -8.67382431e+00, -1.68027472e+00, 2.10240886e-01,
          1.30655482e-01, 9.94537234e-01, 1.55010724e+00, 9.69067097e-01,
          3.55445266e-01, -8.34493414e-02, 3.77585351e-01,
          4.31432843e-01, -2.31615737e-01, -1.70379460e-01,
          -3.93446237e-02, -1.26086175e-01, 2.08663434e-01,
          1.12743187e+00, 1.56823146e+00 ]
      - [ 5.30959964e-01, 3.05422097e-01, -1.85620191e-03,
          2.53810227e-01, -7.90017724e-01, -8.51307690e-01,
          3.77387971e-01, 3.82693589e-01, 4.03087646e-01, 5.83441973e-01,
          6.17921054e-01, 6.63281262e-01, 5.60420632e-01,
          -6.58214167e-02, 1.44720860e-02, 5.13789356e-01,
          1.02333879e+00, 1.11258350e-01, 6.50675967e-02,
          -3.93446237e-02, -2.12471470e-01, 4.21770126e-01,
          3.78905088e-01, -4.19567555e-01 ]
      - [ 5.30959964e-01, 5.18587649e-01, -5.55500425e-02,
          7.49013722e-01, -5.72894216e-01, 2.57973582e-01,
          3.77387971e-01, 3.82693589e-01, 4.03087646e-01, 2.73640305e-01,
          -1.36787188e+00, -1.79038588e-02, 7.15049282e-02,
          -6.19709253e-01, -1.61786720e-01, 2.41381347e-01,
          1.18070826e-01, 1.66560546e-01, -1.13301307e-01,
          -5.20092607e-01, -5.04852235e-01, -1.19936311e+00,
          -1.29636919e+00, -6.93746686e-01 ]
      - [ 5.30959964e-01, 5.18587649e-01, 4.54532653e-01,
          -1.41187298e+00, -8.02424610e-01, -3.77241182e+00,
          -2.24614906e+00, 3.82693589e-01, 4.03087646e-01,
          3.21302891e-01, 4.46732163e-01, 8.17511797e-01, 3.48800421e-01,
          8.62525821e-01, -1.49042839e-02, 5.44056952e-01,
          7.09976792e-01, -1.65252909e-01, -1.56109914e-01,
          -1.39011979e-01, -2.32406467e-01, 4.12225574e-02,
          -5.59533685e-02, -6.93746686e-01 ]
      - [ 9.69495058e-01, 5.18587649e-01, 1.05529882e-01, 6.13958716e-01,
          -8.83070469e-01, -1.33199620e+00, 3.77387971e-01,
          3.82693589e-01, 4.03087646e-01, 5.83441973e-01, 4.29613471e-01,
          1.42274816e-02, 4.14475709e-01, 1.91619322e-01,
          -3.47837538e-01, 3.47317755e-01, 5.70704520e-01,
          -4.19643223e-01, -2.48861596e-01, -1.44874692e-01,
          -3.05501699e-01, 2.16274515e-01, 7.94944018e-02,
          -6.93746686e-01 ]
      - [ 9.69495058e-01, 7.31753170e-01, -6.19324982e-01,
          -1.62997637e-02, -6.03911817e-01, 1.47044778e-01,
          3.77387971e-01, 3.82693589e-01, 4.03087646e-01,
          -6.55763209e-01, -2.09542513e+00, -3.00659746e-01,
          -3.51735681e-01, -1.01757228e+00, -5.04512012e-01,
          -3.48835886e-01, -6.82742953e-01, 6.53650437e-04,
          -3.70152563e-01, -8.01506042e-01, -9.36778367e-01,
          -1.77018452e+00, -1.29636919e+00, -6.93746686e-01 ]
      - [ 9.24248919e-02, 9.22565460e-02, -4.58246648e-01,
          6.13958716e-01, -9.20291483e-01, -6.66427851e-01,
          3.77387971e-01, 3.82693589e-01, 4.03087646e-01, 5.83441973e-01,
          7.37753391e-01, -2.43300516e-02, 3.05017024e-01,
          2.69631624e-01, -4.26174909e-01, 1.50578976e-01,
          2.22525001e-01, -4.30703878e-01, -5.77060342e-01,
          -2.56267458e-01, -1.59311220e-01, 1.62997618e-01,
          8.49407673e-01, 8.96492362e-01 ]
      - [ 5.30959964e-01, 5.18587649e-01, -6.19324982e-01,
          3.43847364e-01, -8.14831495e-01, -6.29452348e-01,
          3.77387971e-01, 3.82693589e-01, 4.03087646e-01, 5.83441973e-01,
          9.34620798e-01, 2.64852405e-01, 2.32044578e-01, 3.47644120e-01,
          -4.35966939e-01, 4.46425676e-02, -3.86101753e-02,
          -5.63429177e-01, -6.55542672e-01, -2.56267458e-01,
          -2.52341658e-01, 4.12225574e-02, 9.06438172e-01,
          6.49731100e-01 ]
      - [ 5.30959964e-01, 5.18587649e-01, -1.89782247e-01,
          4.56393421e-01, -1.35453796e+00, -1.55385160e+00,
          3.77387971e-01, 3.82693589e-01, 4.03087646e-01, 5.83441973e-01,
          1.27699912e+00, 5.86165845e-01, 3.05017024e-01, 7.29904652e-01,
          -1.71578735e-01, 1.35444939e-01, 3.26978654e-01,
          -2.64796972e-01, -5.55656135e-01, -2.21090883e-01,
          -1.31209390e-02, 2.46718168e-01, 1.18446243e+00,
          1.59564912e+00 ]
      - [ 1.40803015e+00, 1.37124944e+00, -2.70320624e-01,
          5.91448426e-01, -3.99195641e-01, 5.16804457e-01,
          3.77387971e-01, 3.82693589e-01, 4.03087646e-01,
          -3.61613296e-02, -1.38499057e+00, 6.56377822e-02,
          -1.03629038e-01, -6.89920425e-01, -6.38652891e-02,
          3.47317755e-01, 2.92160600e-01, 5.97918034e-01,
          -7.04929084e-02, -4.90778744e-01, -9.43423331e-01,
          -2.17356515e+00, -1.29636919e+00, -6.93746686e-01 ]
      - [ -7.84645319e-01, -7.60405600e-01, -1.20994759e+00,
          -1.06336877e-01, -8.70663166e-01, -3.70619237e-01,
          3.77387971e-01, 3.82693589e-01, 4.03087646e-01,
          -8.38224664e-02, -1.62465525e+00, -2.62102216e-01,
          -3.44438523e-01, -9.70764816e-01, -6.41602099e-01,
          -5.75842261e-01, -5.95698059e-01, -8.17819476e-01,
          -6.19868934e-01, -6.78387702e-01, -7.50717938e-01,
          -7.04651058e-01, -1.02547371e+00, -6.93746686e-01 ]
      - [ 9.24248919e-02, 3.05422097e-01, -5.92478871e-01,
          6.13958716e-01, -9.38902199e-01, -2.59690434e-01,
          3.77387971e-01, 3.82693589e-01, 4.03087646e-01, 5.83441973e-01,
          1.72829643e-01, -6.93141595e-02, 2.17449829e-01,
          -3.46164070e-02, -5.43680668e-01, 9.00437534e-02,
          1.70297652e-01, -6.18731380e-01, -3.77287209e-01,
          -3.09032470e-01, -4.45047081e-01, 1.02110088e-01,
          2.79101521e-01, -4.74403322e-01 ]
      - [ 5.30959964e-01, 3.05422097e-01, -6.99864924e-01,
          5.91448426e-01, -8.39645624e-01, -1.44292271e+00,
          3.77387971e-01, 3.82693589e-01, 4.03087646e-01, 5.83441973e-01,
          1.09725034e+00, 5.73313415e-01, 2.32044578e-01, 6.28488541e-01,
          -3.38045508e-01, -2.12631881e-01, -7.34282359e-02,
          -4.52824473e-01, -7.91102946e-01, -2.91444212e-01,
          -1.59311220e-01, 1.02110088e-01, 1.06327248e+00,
          1.91095519e+00 ]
      - [ 5.30959964e-01, 5.18587649e-01, -4.58246648e-01,
          7.26504743e-01, -1.01954806e+00, -6.29452348e-01,
          3.77387971e-01, 3.82693589e-01, 4.03087646e-01, 1.78316623e-01,
          -1.29083681e+00, -1.27150655e-01, -8.90347213e-02,
          -8.14740241e-01, -2.49916121e-01, -1.58926472e-02,
          -1.77881896e-01, -2.09494784e-01, -1.70379460e-01,
          -4.96641457e-01, -5.64657450e-01, -9.10146832e-01,
          -1.29636919e+00, -6.93746686e-01 ]
      - [ 5.30959964e-01, 9.22565460e-02, 7.22998679e-01,
          -4.21466112e-01, -1.21185696e+00, -2.03453994e+00,
          3.77387971e-01, 3.82693589e-01, 4.03087646e-01, 5.83441973e-01,
          1.37115288e+00, 1.11312044e+00, 4.94745314e-01, 8.70326996e-01,
          3.86573732e-01, 4.83521760e-01, 7.62203634e-01, 1.11258350e-01,
          -2.70265996e-01, -5.10702059e-02, 1.26424417e-01,
          5.51156521e-01, 1.41971385e+00, 2.11658955e+00 ]
      - [ 1.84656489e+00, 1.58441496e+00, 1.59222126e-01, 2.53810227e-01,
          -3.68178040e-01, 4.79828954e-01, 3.77387971e-01,
          3.82693589e-01, 4.03087646e-01, 4.40457135e-01,
          -9.82696354e-01, -5.05147595e-03, 1.00693993e-01,
          -6.66516542e-01, -2.10747436e-01, 1.95980161e-01,
          6.58439994e-02, 4.32011157e-01, -6.33580312e-02,
          -3.67660403e-01, -3.38726759e-01, -6.81818187e-01,
          -1.29636919e+00, -6.93746686e-01 ]
      - [ 5.30959964e-01, 3.05422097e-01, -8.34097147e-01,
          1.86283410e-01, -1.03195488e+00, -5.18523514e-01,
          3.77387971e-01, 3.82693589e-01, 4.03087646e-01, 4.88118261e-01,
          -7.25913048e-01, -1.78560570e-01, 1.37180224e-01,
          -7.83535242e-01, -5.53472698e-01, -2.58033067e-01,
          -5.60189448e-02, -6.96154475e-01, -3.91556770e-01,
          -4.84915853e-01, -6.31107569e-01, -4.45878565e-01,
          -7.97351301e-01, -6.93746686e-01 ]
      - [ -2.53878522e+00, -2.67889500e+00, -7.53557205e-01,
          6.58976555e-01, -1.22426403e+00, -1.81268251e+00,
          3.77387971e-01, 3.82693589e-01, 4.03087646e-01, 5.11948824e-01,
          3.95375609e-01, -2.10691914e-01, 1.00693993e-01,
          -1.43833712e-01, -8.17860901e-01, -2.73166627e-01,
          -1.95291176e-01, -9.17363584e-01, -5.62790751e-01,
          -4.08699840e-01, -4.91562188e-01, -9.57746655e-02,
          1.29396185e-01, -2.27642104e-01 ]
      - [ 9.69495058e-01, 9.44918692e-01, -6.46171093e-01,
          -2.06464052e+00, -4.67434227e-01, -1.66478038e+00,
          -1.47321030e-01, 3.82693589e-01, 1.73941124e-02,
          -2.44307852e+00, -2.17246032e+00, -2.81381160e-01,
          -2.86060393e-01, -1.18139827e+00, -6.12225771e-01,
          -5.15307069e-01, -8.91650796e-01, -3.20099175e-01,
          -4.12960947e-01, -7.66329288e-01, -9.30133462e-01,
          -1.73212981e+00, -1.29636919e+00, -6.93746686e-01 ]
      - [ 5.30959964e-01, 5.18587649e-01, -3.50860566e-01,
          4.11375523e-01, -6.41132832e-01, 1.84020311e-01,
          3.77387971e-01, 3.82693589e-01, 4.03087646e-01, 1.30655482e-01,
          -1.23948026e+00, -1.01445504e-01, 2.04239525e-02,
          -8.77149999e-01, -3.47837538e-01, -4.61602546e-02,
          -4.39017057e-01, -1.65252909e-01, -2.06053197e-01,
          -5.96308649e-01, -5.38077295e-01, -1.03953302e+00,
          -1.29636919e+00, -6.93746686e-01 ]
      - [ 9.69495058e-01, 9.44918692e-01, -8.07251036e-01,
          6.36467636e-01, -6.03911817e-01, -1.11788325e-01,
          3.77387971e-01, 3.82693589e-01, 4.03087646e-01, 5.35780847e-01,
          2.75543272e-01, -1.65708184e-01, 1.22585468e-01,
          -6.58214167e-02, -5.43680668e-01, -3.10266782e-02,
          -1.60473123e-01, -7.40396380e-01, -4.20095831e-01,
          -2.91444212e-01, -3.18791777e-01, 3.16759874e-03,
          4.64450985e-01, -1.59097329e-01 ]
      - [ 9.69495058e-01, 1.15808380e+00, -2.87023224e-02,
          -1.28845826e-01, -6.22522533e-01, -2.96668172e-01,
          3.77387971e-01, 3.82693589e-01, 4.03087646e-01, 3.45133454e-01,
          -9.48458493e-01, 7.84901679e-02, 1.80963606e-01,
          -6.27510428e-01, 3.40564288e-02, 4.98655796e-01,
          6.22931898e-01, 5.42615891e-01, 1.29280195e-01,
          -3.55934799e-01, -3.78596961e-01, -1.19175208e+00,
          -1.29636919e+00, -6.93746686e-01 ]
      - [ 1.40803015e+00, 1.37124944e+00, -3.77706707e-01,
          3.66356283e-01, -5.10859072e-01, 5.16804457e-01,
          3.77387971e-01, 3.82693589e-01, 4.03087646e-01, 2.73640305e-01,
          -1.03405297e+00, -3.71828191e-02, -2.20385090e-01,
          -6.74317896e-01, -2.89084524e-01, 1.05177335e-01,
          2.92160600e-01, 3.43527734e-01, -2.48861596e-01,
          -6.25622690e-01, -7.77298033e-01, -2.13551044e+00,
          -1.29636919e+00, -6.93746686e-01 ]
      - [ 5.30959964e-01, 5.18587649e-01, -2.43474483e-01,
          4.56393421e-01, -6.47336662e-01, 2.57973582e-01,
          3.77387971e-01, 3.82693589e-01, 4.03087646e-01, 3.92794579e-01,
          -1.27371764e+00, -1.79038588e-02, 1.07991152e-01,
          -6.58715427e-01, -1.61786720e-01, 3.62451762e-01,
          2.74751842e-01, 2.88225561e-01, -9.90317687e-02,
          -4.61464882e-01, -5.04852235e-01, -1.38202584e+00,
          -1.29636919e+00, -6.93746686e-01 ]
      - [ 5.30959964e-01, 3.05422097e-01, -5.11938870e-01,
          2.31301293e-01, -6.78354263e-01, 5.53780019e-01,
          3.77387971e-01, 3.82693589e-01, 4.03087646e-01, 2.73640305e-01,
          -1.17100441e+00, -1.59281999e-01, -5.98456562e-02,
          -7.75733829e-01, -2.89084524e-01, -3.10266782e-02,
          -2.12008860e-02, 1.22318663e-01, -2.06053197e-01,
          -5.61132073e-01, -7.57362843e-01, -1.61796546e+00,
          -1.29636919e+00, -6.93746686e-01 ]
      - [ 5.30959964e-01, 5.18587649e-01, -4.58246648e-01,
          6.58976555e-01, -6.90761149e-01, -2.22714916e-01,
          3.77387971e-01, 3.82693589e-01, 4.03087646e-01,
          -2.98300415e-01, -1.58185804e+00, -8.85927305e-02,
          -2.05790773e-01, -7.75733829e-01, -1.81371063e-01,
          2.41381347e-01, -1.25655055e-01, 2.77164906e-01,
          -1.20436184e-01, -5.55269182e-01, -5.18142343e-01,
          -1.29069448e+00, -1.29636919e+00, -6.93746686e-01 ]
      - [ 5.30959964e-01, 5.18587649e-01, -7.26711094e-01,
          2.31301293e-01, -6.59743547e-01, -7.48105943e-02,
          3.77387971e-01, 3.82693589e-01, 4.03087646e-01, 5.83441973e-01,
          1.06301296e+00, 3.61246437e-01, 2.02855512e-01, 3.32041621e-01,
          -4.06590581e-01, 7.49101788e-02, 2.22525001e-01,
          -5.85550129e-01, -6.27003610e-01, -3.09032470e-01,
          -2.78921604e-01, 1.07786814e-02, 1.09178782e+00,
          1.65048516e+00 ]
      - [ 1.40803015e+00, 1.15808380e+00, 1.32376000e-01, 1.41264185e-01,
          -7.03168392e-01, 3.68900150e-01, 3.77387971e-01,
          3.82693589e-01, 4.03087646e-01, -4.65117246e-01,
          -1.72736883e+00, 6.56377822e-02, -2.42276996e-01,
          -7.67932713e-01, -1.22618027e-01, 2.11113736e-01,
          1.70297652e-01, 4.09890234e-01, -2.13187858e-01,
          -5.25955319e-01, -9.43423331e-01, -2.18878698e+00,
          -1.29636919e+00, -6.93746686e-01 ]
      - [ 5.30959964e-01, 7.31753170e-01, -5.38786650e-01,
          3.43847364e-01, -7.21778691e-01, -8.59537220e-04,
          3.77387971e-01, 3.82693589e-01, 4.03087646e-01, 5.83441973e-01,
          7.29194045e-01, 7.80129014e-03, 3.56097579e-01, 2.07221821e-01,
          -4.26174909e-01, 3.77585351e-01, 4.14023548e-01,
          -4.08582926e-01, -4.55769569e-01, -2.50404745e-01,
          -1.46021366e-01, 1.40164822e-01, 1.02049947e+00,
          9.78746176e-01 ]
      - [ 1.40803015e+00, 1.37124944e+00, -4.85092789e-01,
          2.76319176e-01, -5.85301101e-01, 5.16804457e-01,
          3.77387971e-01, 3.82693589e-01, 4.03087646e-01, 5.83441973e-01,
          9.17502105e-01, 2.39147261e-01, 2.90422291e-01, 1.60414308e-01,
          -1.91163093e-01, 3.17050129e-01, 5.35886467e-01,
          -4.08582926e-01, -2.84535557e-01, -2.38679171e-01,
          -2.05826342e-01, 2.23885372e-01, 6.07027471e-01,
          1.42499730e-01 ]
      - [ 9.69495058e-01, 9.44918692e-01, 2.39762083e-01, 1.41264185e-01,
          -7.34185994e-01, 1.84020311e-01, 3.77387971e-01,
          3.82693589e-01, 4.03087646e-01, 5.35780847e-01,
          -4.69129205e-01, -5.64613938e-02, 2.46638894e-01,
          -4.40280825e-01, -4.42809463e-02, 3.47317755e-01,
          5.70704520e-01, 2.21862733e-01, -5.62233701e-02,
          -3.09032470e-01, -4.31757003e-01, -3.31714362e-01,
          -9.54185426e-01, -6.93746686e-01 ]
      - [ 5.30959964e-01, 7.31753170e-01, -4.85092789e-01,
          3.88866574e-01, -8.27238739e-01, 4.05875683e-01,
          3.77387971e-01, 3.82693589e-01, 4.03087646e-01, 2.02148616e-01,
          -1.37643123e+00, -1.07871689e-01, -2.33594310e-02,
          -7.91336358e-01, -2.59708136e-01, 1.50578976e-01,
          -1.95291176e-01, 1.77620843e-01, -2.13187858e-01,
          -6.43210948e-01, -6.90912724e-01, -1.66363120e+00,
          -1.29636919e+00, -6.93746686e-01 ]
      - [ 5.30959964e-01, 7.31753170e-01, -2.97168344e-01,
          3.66356283e-01, -5.97708404e-01, 2.57973582e-01,
          3.77387971e-01, 3.82693589e-01, 4.03087646e-01, 8.29929337e-02,
          -1.46202564e+00, -8.85927305e-02, -1.47412643e-01,
          -8.22541356e-01, -2.69500464e-01, 7.49101788e-02,
          -2.47518003e-01, 8.91374126e-02, -1.91783652e-01,
          -5.84583223e-01, -6.44397616e-01, -1.32113826e+00,
          -1.29636919e+00, -6.93746686e-01 ]
      - [ 5.30959964e-01, 3.05422097e-01, -6.46171093e-01,
          7.37373531e-02, -7.77610421e-01, -4.44572479e-01,
          3.77387971e-01, 3.82693589e-01, 4.03087646e-01, 5.83441973e-01,
          1.01165593e+00, 2.45573446e-01, 2.39341736e-01, 4.56861198e-01,
          -4.16382611e-01, 5.97761460e-02, 3.10259406e-02,
          -4.74945426e-01, -7.05485940e-01, -2.91444212e-01,
          -1.92536488e-01, 1.02110088e-01, 9.77726579e-01,
          1.03358197e+00 ]
      - [ 5.30959964e-01, 3.05422097e-01, -9.41483259e-01,
          -2.08714938e+00, -5.04655659e-01, -3.25474787e+00,
          -9.34380591e-01, 3.82693589e-01, -1.75452650e-01,
          -1.82347667e+00, -3.40737522e-01, -1.78560570e-01,
          -7.16598332e-01, -1.25160944e+00, -6.12225771e-01,
          -8.33116233e-01, -1.03092253e+00, -4.86006051e-01,
          -4.20095831e-01, -6.78387702e-01, -9.10198271e-01,
          -4.76322442e-01, -7.11805344e-01, -6.93746686e-01 ]
      - [ -3.46110195e-01, 9.22565460e-02, 1.77001023e+00,
          5.91448426e-01, 4.81704712e-01, -1.11788325e-01,
          -8.03205311e-01, 7.61251152e-03, 4.03087646e-01,
          5.83441973e-01, 1.05445313e+00, -4.54890460e-01,
          -1.76740265e+00, -1.43883896e+00, -1.27809203e+00,
          -1.48386872e+00, -1.50096548e+00, -1.19387448e+00,
          9.21237946e-01, 1.86605835e+00, 3.05687737e+00, 3.15410256e+00,
          1.89734530e+00, 1.55452240e+00 ]
      - [ 9.69495058e-01, 1.15808380e+00, 2.41432500e+00,
          -8.26632440e-01, 7.91880906e-01, 3.68900150e-01,
          -1.61457341e-02, 3.82693589e-01, 4.03087646e-01,
          -3.22130978e-01, -2.68602753e+00, -1.68873513e+00,
          -1.55578220e+00, -1.25160944e+00, -9.94119704e-01,
          -5.15307069e-01, 3.93064022e+00, 4.28104687e+00,
          2.95464301e+00, 1.13321090e+00, -1.19441241e-01,
          -2.01373506e+00, -1.29636919e+00, -6.93746686e-01 ]
      - [ 9.69495058e-01, 9.44918692e-01, 1.74316406e+00,
          -9.16669548e-01, 1.00900400e+00, 3.31924617e-01,
          -1.61457341e-02, 3.82693589e-01, 4.03087646e-01,
          -9.65564847e-01, -2.71170592e+00, -1.60519373e+00,
          -1.49740422e+00, -1.18919945e+00, -8.66821647e-01,
          -8.93651485e-01, 2.99055529e+00, 4.28104687e+00,
          2.89756489e+00, 1.47911501e+00, -4.11822021e-01,
          -1.80823934e+00, -1.29636919e+00, -6.93746686e-01 ]
      - [ 9.24248919e-02, 9.22565460e-02, 2.62909722e+00,
          -2.18882933e-01, 3.39023679e-01, -5.92474580e-01,
          -1.72144020e+00, -5.55020273e-01, 4.03087646e-01,
          5.83441973e-01, 7.12075353e-01, -5.38432062e-01,
          -1.11794722e+00, -7.05522954e-01, -1.81371063e-01,
          1.11914015e+00, 4.14023548e-01, 2.77164906e-01, 1.24230194e+00,
          2.14160919e+00, 3.21635771e+00, 3.05516005e+00, 2.30368829e+00,
          3.06250763e+00 ]
      - [ 9.24248919e-02, 5.18587649e-01, 2.22640061e+00,
          -2.41393223e-01, 2.45970920e-01, -7.77354419e-01,
          -2.50850749e+00, 7.61251152e-03, 4.03087646e-01,
          5.83441973e-01, 4.80970055e-01, -1.00755000e+00,
          -1.29308128e+00, -9.31758642e-01, -6.61186457e-01,
          -4.24504668e-01, -1.95291176e-01, 9.18670893e-01,
          1.48488355e+00, 2.07711840e+00, 2.45218062e+00, 2.04290366e+00,
          1.29139495e+00, -1.59097329e-01 ]
      - [ -3.46110195e-01, 9.22565460e-02, 1.77001023e+00,
          -8.49141419e-01, 8.29101920e-01, 1.47044778e-01,
          1.15037374e-01, 3.82693589e-01, 4.03087646e-01, 5.35780847e-01,
          6.86396837e-01, -1.05253410e+00, -1.65794373e+00,
          -1.36082673e+00, -1.11162543e+00, -1.19632709e+00,
          -1.29205763e+00, -1.16069329e+00, 7.57138550e-01,
          1.84260750e+00, 2.85752654e+00, 3.42809701e+00, 2.18962693e+00,
          2.25367928e+00 ]
      - [ -2.10025024e+00, -1.82623315e+00, 6.96150959e-01,
          -3.53939265e-01, 2.27360219e-01, -3.33643705e-01,
          -2.50850749e+00, -1.11765313e+00, 4.03087646e-01,
          2.02148616e-01, 2.24186197e-01, -1.66945636e+00,
          -2.11037350e+00, -1.77429211e+00, -1.75790751e+00,
          -2.28595877e+00, -2.58032322e+00, -1.09433043e+00,
          9.49777007e-01, 1.76052868e+00, 2.00031924e+00, 1.46447074e+00,
          7.28217661e-01, 2.65880346e-01 ]
      - [ -1.22317994e+00, -9.73571122e-01, 7.49844790e-01,
          1.63773119e-01, 2.58377820e-01, -3.33643705e-01,
          -2.37733221e+00, -7.42560804e-01, 4.03087646e-01,
          -8.38224664e-02, -2.30941176e+00, -2.17070556e+00,
          -2.06658983e+00, -1.77429211e+00, -1.69915450e+00,
          -2.11948705e+00, -2.35400629e+00, 1.28366590e+00,
          1.31364942e+00, 1.36185956e+00, 1.08330715e+00,
          -1.20541137e-02, -7.33191848e-01, -6.93746686e-01 ]
      - [ 5.30959964e-01, 9.44918692e-01, 2.01162839e+00, 5.01412630e-01,
          6.98827803e-01, -2.96668172e-01, -2.11497378e+00,
          3.82693589e-01, 4.03087646e-01, -7.51086891e-01,
          -1.29083681e+00, -1.58591473e+00, -1.54118788e+00,
          -1.06437957e+00, -8.86406004e-01, -1.58926472e-02,
          4.45291042e+00, 4.82300901e+00, 3.12587714e+00, 1.42048728e+00,
          5.99743053e-02, -9.71034467e-01, -1.29636919e+00,
          -6.93746686e-01 ]
   decision_functions:
      -
         sv_count: 1
         rho: 2.4635333247926257e+00
         alpha: [ 1. ]
         index: [ 0 ]
      -
         sv_count: 1
         rho: 8.0146150290662821e-01
         alpha: [ 1. ]
         index: [ 1 ]
      -
         sv_count: 1
         rho: -5.9793118433571368e-01
         alpha: [ 1. ]
         index: [ 2 ]
      -
         sv_count: 1
         rho: -1.2501465353058219e+00
         alpha: [ 1. ]
         index: [ 3 ]
      -
         sv_count: 1
         rho: -6.4085906076150867e-01
         alpha: [ 1. ]
         index: [ 4 ]
      -
         sv_count: 1
         rho: -5.1850275061509288e-01
         alpha: [ 1. ]
         index: [ 5 ]
      -
         sv_count: 1
         rho: -5.2901407004673850e-01
         alpha: [ 1. ]
         index: [ 6 ]
      -
         sv_count: 1
         rho: -1.1131995149110145e+00
         alpha: [ 1. ]
         index: [ 7 ]
      -
         sv_count: 1
         rho: -7.9676776823311379e-01
         alpha: [ 1. ]
         index: [ 8 ]
      -
         sv_count: 1
         rho: -3.2188329403352423e-01
         alpha: [ 1. ]
         index: [ 9 ]
      -
         sv_count: 1
         rho: -1.4202316613558084e+00
         alpha: [ 1. ]
         index: [ 10 ]
      -
         sv_count: 1
         rho: -6.2588563431785094e-01
         alpha: [ 1. ]
         index: [ 11 ]
      -
         sv_count: 1
         rho: -9.2887456940890356e-01
         alpha: [ 1. ]
         index: [ 12 ]
      -
         sv_count: 1
         rho: -5.5725594190858241e-01
         alpha: [ 1. ]
         index: [ 13 ]
      -
         sv_count: 1
         rho: -1.8812871967072300e-01
         alpha: [ 1. ]
         index: [ 14 ]
