%YAML:1.0
---
opencv_ml_svm:
   format: 3
   svmType: C_SVC
   kernel:
      type: LINEAR
   C: 5.0000000000000000e-01
   term_criteria: { epsilon:1.1920928955078125e-07, iterations:1000 }
   var_count: 24
   class_count: 6
   class_labels: !!opencv-matrix
      rows: 6
      cols: 1
      dt: i
      data: [ 1, 2, 3, 4, 5, 6 ]
   sv_total: 15
   support_vectors:
      - [ -3.90215926e-02, -8.50740224e-02, -4.17669356e-01,
          1.70737356e-02, -1.72017723e-01, -1.37600722e-02,
          -6.66133815e-16, -2.22044605e-16, -4.44089210e-16,
          5.25223427e-02, -2.03506857e-01, -1.08591780e-01,
          -4.34363931e-01, 4.04087603e-01, 1.87359738e+00,
          1.38515222e+00, 6.25138462e-01, -6.03894949e-01,
          -1.48638666e+00, -1.63856816e+00, -7.25963771e-01,
          3.74505222e-01, -2.43864894e-01, 3.10254190e-03 ]
      - [ -1.64872438e-01, -1.04941107e-01, -3.16466808e-01,
          -1.24930255e-01, -5.52478075e-01, 8.09394345e-02,
          -6.90471288e-03, -2.17698272e-02, 5.38071436e-05,
          9.67312902e-02, -7.75099918e-02, 1.22780852e-01,
          -4.68584955e-01, -6.00480795e-01, -1.14090073e+00,
          2.92391121e-01, 1.91903961e+00, 5.29178321e-01, 1.11134432e-01,
          -5.07519543e-01, -5.49611688e-01, 3.31577837e-01,
          -1.57936811e-01, 9.22335535e-02 ]
      - [ 1.34853378e-01, 1.69355169e-01, 7.31461793e-02,
          -7.00150058e-03, -6.62870765e-01, -2.95618474e-01,
          5.37764278e-17, 9.54097912e-18, 2.08166817e-17,
          -5.86857200e-02, -3.42605770e-01, -1.38950184e-01,
          7.47188181e-02, -5.80199994e-02, -6.42188126e-03,
          4.98899398e-03, -9.97123420e-02, -1.80964902e-01,
          -4.60234135e-02, -2.91244704e-02, -2.34986078e-02,
          9.95977595e-02, 1.02530383e-01, 1.40351221e-01 ]
      - [ 8.71632434e-03, 7.31340796e-02, 2.51734350e-02, 1.25366136e-01,
          -1.40250161e-01, -8.65541957e-03, 4.77048956e-18,
          1.48074087e-02, 1.70540944e-01, 2.43777663e-01, 1.39963329e-02,
          -1.69465452e-01, -1.64020568e-01, -1.81809366e-01,
          -1.95753977e-01, -4.73460853e-02, -1.39725963e-02,
          -6.14678822e-02, -3.85824181e-02, -2.30068211e-02,
          -5.55321900e-03, 1.81512088e-02, 1.46024404e-02,
          -3.57689150e-02 ]
      - [ 2.69683562e-02, 8.68278556e-03, -9.74318013e-02,
          2.81003788e-02, -6.77933246e-02, -1.12475501e-02,
          7.12271258e-02, 2.61380114e-02, 6.93889390e-18, 2.66160332e-02,
          3.15722227e-02, 7.69860744e-02, 1.01603031e-01, 6.85449541e-02,
          6.04683235e-02, 9.70608443e-02, 9.38430894e-03,
          -1.09310649e-01, -1.27392441e-01, -1.22922286e-01,
          -9.40115824e-02, -3.65726054e-02, -2.03678161e-02,
          -1.57966185e-02 ]
      - [ -2.74200831e-02, -5.75617477e-02, -1.46103486e-01,
          -1.41403461e-02, -2.54460126e-01, 6.94713518e-02,
          6.73596933e-02, 2.69949734e-02, 7.20473763e-04,
          -1.94870293e-01, 1.14337482e-01, -1.83659494e-01,
          -2.00709373e-01, -1.03230488e+00, -1.59652948e+00,
          -2.44350389e-01, 1.16786230e+00, 6.83186352e-01,
          2.79682487e-01, 2.86496937e-01, -7.38239586e-02,
          2.43498579e-01, 1.19943164e-01, 1.66820362e-01 ]
      - [ 1.80042177e-01, 2.23845661e-01, 1.10385798e-01, 4.63679666e-03,
          -6.28141224e-01, -2.15295851e-01, -4.51028104e-17,
          -2.38524478e-17, -2.38524478e-17, -3.75004448e-02,
          -2.66109943e-01, -5.20341769e-02, 1.45048350e-02,
          -1.26559362e-01, -1.02586441e-01, -4.30586673e-02,
          -1.82963639e-01, -8.26267004e-02, 5.06155826e-02,
          1.34657202e-02, -3.53496261e-02, 2.30168831e-02,
          1.51706249e-01, 1.71838164e-01 ]
      - [ 2.82113794e-02, 4.74784784e-02, -2.76134014e-02,
          1.01251245e-01, -1.19069487e-01, -5.70750125e-02,
          2.42861287e-17, 1.07012996e-02, 1.37410611e-01, 1.92957118e-01,
          -2.65226327e-03, -1.20874003e-01, -1.39836833e-01,
          -1.94079921e-01, -1.86121926e-01, -7.53608868e-02,
          -5.58833592e-02, -5.78822382e-02, -3.43145318e-02,
          9.72469337e-04, 3.40977658e-06, 1.64828803e-02, 1.47025904e-03,
          1.01608150e-02 ]
      - [ 4.22144756e-02, 2.98567545e-02, -9.96491536e-02,
          5.99184521e-02, -8.37215856e-02, -1.62688382e-02,
          6.24813214e-02, 5.74589591e-04, -6.93889390e-18,
          3.89059596e-02, 2.66017579e-02, 1.01518556e-01, 1.18518844e-01,
          5.23003601e-02, 5.31457290e-02, 9.26466435e-02, 8.99051898e-04,
          -1.17905751e-01, -1.35508612e-01, -1.30057633e-01,
          -1.03578344e-01, -4.56468351e-02, -4.17077392e-02,
          -1.57943983e-02 ]
      - [ 1.84039712e-01, 2.12822899e-01, 7.06156567e-02,
          -3.97293046e-02, -4.85642105e-01, -2.25828245e-01,
          -5.76872961e-04, -1.15359111e-16, -1.17961196e-16,
          -4.84920777e-02, -2.15124607e-01, -1.08878955e-01,
          4.47631404e-02, 2.00565648e-03, 4.88740355e-02,
          -7.71138398e-03, -2.75301546e-01, -1.96882918e-01,
          -4.01131324e-02, 3.06249713e-05, -2.82691605e-02,
          -1.76298954e-02, 1.61946744e-01, 1.23230450e-01 ]
      - [ 7.21675232e-02, 8.10105279e-02, -8.24787468e-02,
          9.58394259e-02, -4.81649153e-02, -1.57992423e-01,
          -1.89965516e-02, 4.63336799e-03, 1.36912510e-01,
          2.28558898e-01, 3.35202329e-02, -1.21942535e-01,
          -2.03926295e-01, -1.64288461e-01, -1.94146037e-01,
          -2.94764489e-02, -9.85680148e-02, -1.46384478e-01,
          -9.08602178e-02, -1.00320885e-02, 1.00132562e-02,
          2.81984136e-02, -3.21706478e-03, -5.39066680e-02 ]
      - [ 4.38383818e-02, 3.52474637e-02, -9.56251100e-02,
          1.82460863e-02, -6.28039017e-02, -4.67032902e-02,
          5.53230420e-02, 4.09822464e-02, -5.43140387e-03,
          1.44372443e-02, 1.75076760e-02, 9.08010453e-02, 9.73939598e-02,
          7.43250251e-02, 7.10054040e-02, 6.16335832e-02,
          -1.62887927e-02, -1.15044497e-01, -1.22148693e-01,
          -1.16006166e-01, -9.99945775e-02, -4.31147553e-02,
          -2.55973451e-02, -3.10437009e-02 ]
      - [ -4.11538780e-02, -2.18082173e-03, 8.90083890e-03,
          8.55615363e-02, 1.54183004e-02, 2.63985787e-02,
          -2.68882139e-17, 2.50197668e-02, 2.10549712e-01,
          2.78573066e-01, 1.38817072e-01, -8.56888741e-02,
          -1.76806450e-01, -1.77087560e-01, -1.50861725e-01,
          -4.11721691e-02, 3.65024544e-02, -3.61252874e-02,
          -2.24614106e-02, -1.45292627e-02, -9.96166607e-04,
          1.30956655e-03, -1.90924446e-03, -5.75091206e-02 ]
      - [ 6.24069385e-03, -8.10570270e-03, -1.05310611e-01,
          6.31775782e-02, 4.19372767e-02, 6.39446080e-02, 8.34078565e-02,
          3.13957892e-02, 3.46944695e-18, 3.72922570e-02, 1.01581275e-01,
          4.08602022e-02, 7.58901313e-02, 7.79000595e-02, 5.64436466e-02,
          9.19769704e-02, 1.03553915e-02, -6.40195236e-02,
          -1.14863440e-01, -1.14048861e-01, -8.45806003e-02,
          -1.28019350e-02, -3.38267945e-02, -3.21392380e-02 ]
      - [ 1.13165909e-02, -8.17543175e-03, -6.46776035e-02,
          -2.36581173e-02, 5.16293244e-03, 2.10491903e-02,
          4.85167243e-02, -7.47546263e-04, -6.07585609e-02,
          -5.72981127e-02, 3.85551117e-02, 9.33128372e-02,
          1.04993172e-01, 1.01282962e-01, 7.90549517e-02, 4.95865531e-02,
          -1.09186145e-02, -5.68399765e-02, -7.14781433e-02,
          -7.24215135e-02, -5.28610535e-02, -1.19769769e-02,
          -1.26212789e-02, 2.59160297e-03 ]
   uncompressed_sv_total: 104
   uncompressed_support_vectors:
      - [ -1.52644682e+00, -1.73143888e+00, 5.05782247e-01,
          -4.73786592e+00, -1.27943671e+00, -2.53201532e+00,
          -6.84058070e-01, 1.49476364e-01, -7.87015676e-01,
          -1.39688683e+00, 2.81022310e-01, 1.61804545e+00,
          1.63351524e+00, 1.78913963e+00, 1.95495546e+00, 2.64965081e+00,
          4.11759347e-01, -6.59601927e-01, -2.49536917e-01,
          -1.23757161e-01, -3.19175065e-01, 2.25563914e-01,
          9.40208197e-01, 1.11971176e+00 ]
      - [ 7.47816861e-01, 2.83223867e-01, -2.53707558e-01,
          7.11979032e-01, 1.45712328e+00, 1.21060336e+00, 4.07141179e-01,
          1.49476364e-01, -1.71237421e+00, -2.17427468e+00,
          -1.73195630e-01, 1.34592974e+00, 1.44030631e+00,
          1.68937731e+00, 1.28774822e+00, 2.15536371e-01, 7.93673337e-01,
          8.40454578e-01, 1.02728650e-01, -4.20902461e-01,
          -2.74625480e-01, -2.57750861e-02, -3.69504929e-01,
          -7.43630469e-01 ]
      - [ 1.72250116e+00, 1.67799056e+00, 4.46644574e-02,
          -1.32509911e+00, 1.12524271e+00, 1.21060336e+00,
          4.07141179e-01, 4.59766507e-01, -6.60832107e-01,
          -9.30455208e-01, 5.33365309e-01, 1.68765628e+00,
          1.76232123e+00, 2.10377431e+00, 2.21087050e+00, 2.18954396e+00,
          7.77068615e-01, 4.35329825e-01, 3.16850990e-01,
          -8.37568194e-02, -1.40976906e-01, 4.97847885e-01,
          1.02500975e+00, 5.76237023e-01 ]
      - [ 1.39760661e+00, 1.05809426e+00, 4.78657931e-01,
          -4.20875502e+00, 3.91611755e-01, 8.92833769e-01,
          4.07141179e-01, -5.67795616e-03, -1.12351012e+00,
          -1.88553059e+00, -9.74926353e-02, 1.32061660e+00,
          1.56911230e+00, 1.30567586e+00, 1.26990810e-01, 1.16543448e+00,
          2.73645329e+00, 8.62353265e-01, -6.30433112e-02,
          -4.43759859e-01, -7.94369698e-01, -3.21987653e+00,
          -1.85824382e+00, -7.43630469e-01 ]
      - [ 7.47816861e-01, 4.38197941e-01, 4.46644574e-02,
          -8.48899007e-01, 3.50854307e-01, 1.06937218e+00,
          4.07141179e-01, -1.60823032e-01, -1.71237421e+00,
          -2.10764098e+00, -4.70241457e-02, 1.39655602e+00,
          1.36874759e+00, 1.65100718e+00, 1.62592173e+00, 2.60062724e-01,
          1.32406401e-02, 4.90076363e-01, -8.78772174e-04,
          -4.72331494e-01, -3.56299639e-01, -1.72389552e-01,
          -4.26039428e-01, -7.43630469e-01 ]
      - [ 7.47816861e-01, 2.83223867e-01, 6.14280999e-01,
          -6.90166175e-01, 1.36978638e+00, 1.21060336e+00,
          4.07141179e-01, -6.26267493e-01, -2.17505217e+00,
          -2.30754066e+00, -5.54354750e-02, 1.33960152e+00,
          1.39021540e+00, 1.65868104e+00, 1.23290944e+00, 5.71748137e-01,
          1.05935264e+00, 9.71846342e-01, 1.85614839e-01,
          -2.78044075e-01, -1.40976906e-01, -1.53027577e-02,
          -1.32116723e+00, -7.43630469e-01 ]
      - [ 7.47816861e-01, 2.83223867e-01, -1.45208806e-01,
          6.06156647e-01, 1.23586953e+00, 1.21060336e+00, 4.07141179e-01,
          -1.60823032e-01, -1.54412699e+00, -2.17427468e+00,
          -4.70241457e-02, 1.32061660e+00, 1.39737117e+00,
          1.75844347e+00, 1.55280352e+00, 3.93642247e-01, 8.26883316e-01,
          8.40454578e-01, 1.44171745e-01, -3.46616060e-01,
          -1.48401961e-01, 7.89494440e-02, -1.71634600e-01,
          -7.43630469e-01 ]
      - [ 7.47816861e-01, 4.38197941e-01, 1.10252464e+00,
          -5.61089897e+00, -7.67059505e-01, -2.01706201e-01,
          4.07141179e-01, 4.59766507e-01, -4.08460021e-01,
          -1.13035488e+00, 3.14668149e-01, 1.66867137e+00,
          1.70507407e+00, 1.79681361e+00, 1.73559976e+00, 4.67852980e-01,
          1.49108136e+00, 9.49947655e-01, -4.23218645e-02,
          -2.78044075e-01, -1.92951337e-01, -1.53027577e-02,
          -5.76797664e-01, -7.43630469e-01 ]
      - [ 1.72250116e+00, 1.36804211e+00, -1.18084513e-01,
          1.29956484e-01, 1.42218864e+00, 1.21060336e+00, 4.07141179e-01,
          4.59766507e-01, -4.08460021e-01, -1.19698715e+00,
          3.23079467e-01, 1.66234314e+00, 1.70507407e+00, 1.95796788e+00,
          2.44850612e+00, 1.98175359e+00, 6.60833955e-01, 1.61596790e-01,
          1.99428990e-01, -3.23277898e-02, -1.70676649e-01,
          5.50210476e-01, 1.49612975e+00, 2.23771739e+00 ]
      - [ 1.72250116e+00, 1.52301621e+00, 1.67214286e+00,
          -5.84899902e+00, -8.48574042e-01, -3.20286179e+00,
          -9.02301788e-01, 4.59766507e-01, 4.32773620e-01,
          3.13364357e-01, 9.37114716e-01, 2.08000875e+00, 2.19167423e+00,
          2.21121073e+00, 2.73184085e+00, 3.45112801e+00, 1.47447658e+00,
          9.82795537e-01, 3.03036630e-01, 5.33873141e-02, 1.04045317e-01,
          7.59659529e-01, 1.78822398e+00, 4.30292177e+00 ]
      - [ 1.72250116e+00, 1.36804211e+00, 1.12964892e+00,
          -3.54736543e+00, -9.24266219e-01, -1.43747520e+00,
          4.07141179e-01, 4.59766507e-01, 2.64526397e-01, 2.02309132e-01,
          1.01281774e+00, 2.05469561e+00, 2.16305065e+00, 2.28027701e+00,
          2.65872216e+00, 4.19323635e+00, 3.06855249e+00, 2.92988539e-01,
          1.57986104e-01, 1.73388332e-01, 3.86192083e-01, 8.01549494e-01,
          1.75053430e+00, 2.29982853e+00 ]
      - [ 1.39760661e+00, 1.21306801e+00, 7.49904037e-01,
          -5.31988859e+00, -5.92385590e-01, -5.90090334e-01,
          4.07141179e-01, 4.59766507e-01, -7.87015676e-01,
          -1.61899734e+00, 2.13730663e-01, 1.45983863e+00,
          1.53333294e+00, 1.48985243e+00, 5.01723647e-01, 7.94380784e-01,
          2.35453916e+00, 7.09062815e-01, -4.23218645e-02,
          -4.15188223e-01, -7.57245123e-01, -2.76956034e+00,
          -1.85824382e+00, -7.43630469e-01 ]
      - [ 7.47816861e-01, 5.93172014e-01, -9.58573725e-03,
          -2.54205465e+00, 1.82002813e-01, 8.22219253e-01,
          4.07141179e-01, 4.59766507e-01, -7.02893317e-01,
          -1.48573136e+00, 1.96907997e-01, 1.54210615e+00,
          1.54764450e+00, 1.76611745e+00, 1.88183677e+00, 4.23326641e-01,
          1.62685290e-01, 5.44822872e-01, 6.12857640e-02,
          -3.98045093e-01, -2.82050312e-01, -1.20027289e-01,
          4.31398809e-01, -7.43630469e-01 ]
      - [ 1.39760661e+00, 1.52301621e+00, 2.88786292e-01, 5.53244650e-01,
          -5.57450533e-01, 1.16063401e-01, 4.07141179e-01,
          4.59766507e-01, 4.32773620e-01, 5.79897702e-01, 5.24953961e-01,
          1.87857002e-01, 4.17014807e-01, 1.23875804e-01, 5.47422767e-01,
          2.89747119e-01, 6.30553588e-02, -5.28210163e-01,
          -2.97887087e-01, -2.72329807e-01, -1.78101465e-01,
          2.67453849e-01, 6.10424280e-01, -7.43630469e-01 ]
      - [ 1.39760661e+00, 1.21306801e+00, -1.99457377e-01,
          6.06156647e-01, -6.44787848e-01, 1.51372775e-01,
          4.07141179e-01, 4.59766507e-01, 4.32773620e-01, 2.46732011e-01,
          -9.72282171e-01, 1.05589464e-01, 1.23623490e-01,
          3.94616947e-02, 3.55926640e-02, -1.40675828e-01,
          -1.52808741e-01, 1.28748938e-01, -1.45929292e-01,
          -5.52332163e-01, -8.38919282e-01, -2.59152865e+00,
          -1.85824382e+00, -7.43630469e-01 ]
      - [ -1.20155191e+00, -1.42149067e+00, -8.50448370e-01,
          2.88689345e-01, -1.22121203e+00, -1.75524485e+00,
          1.88903928e-01, 3.04621428e-01, 4.32773620e-01, 4.46631670e-01,
          -2.90955782e-01, -1.60197735e-01, 8.78440961e-02,
          -2.75173426e-01, 1.63550183e-01, -2.14886576e-01,
          -6.34352624e-01, -1.09757495e+00, -8.02110255e-01,
          -5.23760557e-01, -4.45398599e-01, -2.24751830e-01,
          3.65442038e-01, 2.34624252e-01 ]
      - [ 1.39760661e+00, 1.36804211e+00, -1.18084513e-01,
          1.03501268e-01, -6.04030371e-01, -2.72320747e-01,
          4.07141179e-01, 4.59766507e-01, 4.32773620e-01, 5.13264000e-01,
          8.69823098e-01, 5.99194348e-01, 5.67288578e-01, 4.07814771e-01,
          5.83982110e-01, 9.13117886e-01, 4.78179306e-01,
          -3.96818429e-01, -4.08401787e-01, -2.78044075e-01,
          -2.96032522e-02, 3.61706048e-01, 9.11941051e-01,
          2.03568533e-01 ]
      - [ 1.39760661e+00, 1.36804211e+00, 1.26037329e-01, 2.35778913e-01,
          -7.26302385e-01, 2.57294565e-01, 4.07141179e-01,
          4.59766507e-01, 4.32773620e-01, 5.79897702e-01, 1.20628083e+00,
          7.95370400e-01, 3.66923839e-01, 5.45947492e-01, 5.01723647e-01,
          9.57644284e-01, 1.12870075e-01, -4.62514460e-01,
          -7.05409884e-01, -3.12330157e-01, -9.64275375e-02,
          5.50210476e-01, 1.39248335e+00, 2.64144135e+00 ]
      - [ 1.39760661e+00, 1.36804211e+00, 2.34536096e-01, 1.82866916e-01,
          -3.71131510e-01, 2.92601854e-01, 4.07141179e-01,
          4.59766507e-01, 4.32773620e-01, -1.53067321e-01,
          -1.61996329e+00, 1.56215698e-01, 2.34413296e-02,
          -1.42564792e-02, 5.38720787e-02, -2.19382867e-02,
          -3.36459535e-03, 2.92988539e-01, -1.87372386e-01,
          -5.58046460e-01, -8.98318529e-01, -2.92664742e+00,
          -1.85824382e+00, -7.43630469e-01 ]
      - [ -2.26867706e-01, -1.81698367e-01, -6.06326580e-01,
          5.26789427e-01, -8.95153880e-01, -2.51677651e-02,
          4.07141179e-01, 4.59766507e-01, 4.32773620e-01, 3.57787251e-01,
          -1.22462571e+00, -1.09571502e-01, -5.18226577e-03,
          -2.82847345e-01, 1.73129793e-02, -7.49204218e-01,
          -6.34352624e-01, -1.14137197e+00, -5.46545029e-01,
          -5.12331843e-01, -6.97845876e-01, -3.50421637e-01,
          -6.99288845e-01, -7.43630469e-01 ]
      - [ -2.26867706e-01, -1.81698367e-01, -9.31822896e-01,
          2.62234122e-01, -1.06982780e+00, -3.78244638e-01,
          4.07141179e-01, 4.59766507e-01, 4.32773620e-01, 2.68942803e-01,
          -1.27509415e+00, -2.42465287e-01, -1.41144022e-01,
          -4.05631781e-01, -1.28924221e-01, -9.27310526e-01,
          -8.83426726e-01, -1.16327059e+00, -5.74173748e-01,
          -5.92332542e-01, -8.46344113e-01, -7.90265024e-01,
          -1.34943426e+00, -7.43630469e-01 ]
      - [ 4.22921985e-01, 4.38197941e-01, -3.89330626e-01,
          3.94511759e-01, -7.20479667e-01, -3.07628006e-01,
          4.07141179e-01, 4.59766507e-01, 4.32773620e-01, 5.79897702e-01,
          9.20291603e-01, 2.00513378e-01, 2.45273665e-01, 3.46422672e-01,
          3.73766154e-01, 6.45958841e-01, -3.65740769e-02,
          -6.15804911e-01, -8.22831690e-01, -4.55188543e-01,
          -2.00376377e-01, 1.41784355e-01, 1.11923397e+00,
          7.93626904e-01 ]
      - [ 1.39760661e+00, 1.52301621e+00, -9.09586027e-02,
          6.59067035e-01, -2.48859867e-01, 2.92601854e-01,
          4.07141179e-01, 4.59766507e-01, 4.32773620e-01, 2.40946654e-03,
          -1.36762035e+00, 1.49887145e-01, -1.48300037e-01,
          -5.26267998e-02, -2.56881744e-01, -3.78150493e-01,
          -3.85278583e-01, 8.30635149e-03, -2.97887087e-01,
          -5.23760557e-01, -6.45871460e-01, -2.42396927e+00,
          -1.85824382e+00, -7.43630469e-01 ]
      - [ 7.47816861e-01, 4.38197941e-01, -6.87701046e-01,
          -3.57382059e+00, -4.46823686e-01, -3.87370825e+00,
          -2.21173835e+00, 4.59766507e-01, 1.21568022e-02,
          -7.74977088e-01, 2.86788475e-02, 4.66300577e-01,
          -2.48482406e-01, -2.06107169e-01, -1.01066837e-02,
          -6.15625143e-01, -5.51327944e-01, -8.12892377e-01,
          -4.36030328e-01, -5.00903130e-01, -6.75570965e-01,
          -3.08531702e-01, -9.06581640e-01, -7.43630469e-01 ]
      - [ 1.39760661e+00, 1.52301621e+00, -3.62206340e-01,
          5.53244650e-01, -5.39983392e-01, -5.19475818e-01,
          4.07141179e-01, 4.59766507e-01, 4.32773620e-01, 5.79897702e-01,
          1.09693205e+00, 4.59972382e-01, 3.95547420e-01, 5.22925258e-01,
          5.20003378e-01, 1.03185499e+00, 3.28734666e-01,
          -6.26754105e-01, -8.29738975e-01, -3.06615710e-01,
          -1.11277178e-01, 2.67453849e-01, 1.37363851e+00,
          1.22840691e+00 ]
      - [ 1.39760661e+00, 1.21306801e+00, -2.53707558e-01,
          -4.07647753e+00, -3.01262110e-01, -2.17893839e+00,
          -2.47577056e-01, 4.59766507e-01, 4.32773620e-01,
          3.13364357e-01, 3.06256324e-01, 8.14355314e-01, 2.52429456e-01,
          7.68494129e-01, 5.74842155e-01, 1.31385648e+00, 1.62685290e-01,
          -5.61058044e-01, -4.84380484e-01, -3.23758841e-01,
          -2.67200649e-01, -3.60893965e-01, 4.50805686e-02,
          -7.43630469e-01 ]
      - [ 4.22921985e-01, 5.93172014e-01, -1.18084513e-01,
          5.05892672e-02, -7.90349424e-01, -2.01706201e-01,
          4.07141179e-01, 4.59766507e-01, 4.32773620e-01, 5.79897702e-01,
          -3.86123098e-02, 2.96500996e-02, 2.88208842e-01,
          -4.49526459e-02, 3.28066796e-01, -1.25833422e-01,
          -3.65740769e-02, -8.78588438e-01, -4.42937613e-01,
          -3.58044744e-01, -4.23123926e-01, 1.61148515e-02,
          -1.99901849e-01, -7.43630469e-01 ]
      - [ -1.52644682e+00, -1.42149067e+00, -9.31822896e-01,
          5.26789427e-01, -1.06400537e+00, -1.36686075e+00,
          1.88903928e-01, 4.59766507e-01, 4.32773620e-01, 3.57787251e-01,
          -3.75070095e-01, -2.67778397e-01, 3.77531275e-02,
          -2.90521502e-01, 2.64526866e-02, -7.19520271e-01,
          -8.50217223e-01, -1.28371322e+00, -7.81388819e-01,
          -5.98046958e-01, -7.27545381e-01, -4.65618491e-01,
          -3.78927350e-01, -7.43630469e-01 ]
      - [ 1.39760661e+00, 1.36804211e+00, -4.43579197e-01,
          5.05892672e-02, -3.94421428e-01, 4.69140261e-01,
          4.07141179e-01, 4.59766507e-01, 4.32773620e-01, 5.79897702e-01,
          1.04646301e+00, 2.57467806e-01, 2.81053036e-01, 3.61770749e-01,
          4.46884602e-01, 7.35012054e-01, 1.12870075e-01,
          -6.59601927e-01, -5.32730639e-01, -3.80902141e-01,
          -2.07801193e-01, 2.04618946e-01, 1.05327690e+00,
          6.38178736e-02 ]
      - [ -1.52644682e+00, -1.57646477e+00, -6.33452475e-01,
          3.94511759e-01, -1.57638264e+00, -2.63793921e+00,
          7.97788054e-02, 4.59766507e-01, 4.32773620e-01, 5.35476148e-01,
          5.67011118e-01, -1.09571502e-01, 5.92205040e-02,
          1.09160319e-03, 1.36130527e-01, 1.85851976e-01,
          -6.84167385e-01, -9.99031007e-01, -1.03695405e+00,
          -5.69475114e-01, -4.30548728e-01, -1.93334520e-01,
          9.21363354e-01, 1.15076756e+00 ]
      - [ -1.52644682e+00, -1.57646477e+00, -7.14825332e-01,
          5.26789427e-01, -9.30088580e-01, -1.40216804e+00,
          4.07141179e-01, 4.59766507e-01, 4.32773620e-01, 4.68842477e-01,
          4.82896805e-01, 2.00513378e-01, 8.06883052e-02,
          -6.58255257e-03, 1.72689885e-01, 2.30378345e-01,
          -5.84537923e-01, -9.22385812e-01, -1.03695405e+00,
          -5.58046460e-01, -3.93424183e-01, -1.61917225e-01,
          9.40208197e-01, 1.52343595e+00 ]
      - [ -2.26867706e-01, -3.36672455e-01, -5.24953723e-01,
          4.73878980e-01, -9.70846057e-01, -2.72320747e-01,
          4.07141179e-01, 4.59766507e-01, 4.32773620e-01, 2.68942803e-01,
          -1.39285433e+00, -8.42587575e-02, -3.38058621e-02,
          -2.44477257e-01, 1.73129793e-02, -6.74993455e-01,
          -6.01142645e-01, -9.88081515e-01, -4.91287768e-01,
          -5.23760557e-01, -7.64669955e-01, -1.01018679e+00,
          -1.54730463e+00, -7.43630469e-01 ]
      - [ 4.22921985e-01, 5.93172014e-01, -5.24953723e-01,
          6.32611871e-01, -9.99958336e-01, -7.66628802e-01,
          4.07141179e-01, 4.59766507e-01, 4.32773620e-01, 5.79897702e-01,
          3.73547971e-01, 9.92612764e-02, 2.52429456e-01,
          -6.03007264e-02, 2.00109288e-01, -3.33623677e-01,
          -2.52438664e-01, -9.77132320e-01, -3.66958708e-01,
          -3.80902141e-01, -5.56772292e-01, -1.20027289e-01,
          -6.14487350e-01, -7.43630469e-01 ]
      - [ 7.47816861e-01, 7.48146117e-01, -9.58573725e-03,
          5.05892672e-02, 1.27080464e+00, 1.21060336e+00, 4.07141179e-01,
          4.59766507e-01, 4.32773620e-01, 5.79897702e-01, 1.31562924e+00,
          7.95370400e-01, 1.80870682e-01, 4.92229104e-01, 2.54948348e-01,
          1.01701307e+00, 9.59722698e-01, 4.35329825e-01,
          -4.23218645e-02, -3.98045093e-01, -1.55826777e-01,
          6.75879955e-01, 4.78510737e-01, -7.43630469e-01 ]
      - [ 7.47816861e-01, 5.93172014e-01, -3.67100276e-02,
          1.29956484e-01, 1.10195279e+00, 1.21060336e+00, 4.07141179e-01,
          4.59766507e-01, 4.32773620e-01, 5.79897702e-01, 1.15581191e+00,
          7.76385844e-01, 3.31144452e-01, 3.08052570e-01, 4.10325259e-01,
          9.42802310e-01, 1.92281055e+00, 6.43366814e-01,
          -1.11393481e-01, -2.20900789e-01, -1.92951337e-01,
          -1.61758959e+00, -1.85824382e+00, -7.43630469e-01 ]
      - [ 7.47816861e-01, 7.48146117e-01, -9.58573725e-03,
          4.20966983e-01, 1.28244936e+00, 1.21060336e+00, 4.07141179e-01,
          4.59766507e-01, 4.32773620e-01, 5.79897702e-01, 1.47544646e+00,
          9.59905505e-01, 1.80870682e-01, 5.30599177e-01, 4.92583692e-01,
          7.64696419e-01, 1.12577260e+00, 3.91532451e-01, 6.02830714e-03,
          -4.26616907e-01, -1.26127049e-01, 8.01549494e-01,
          6.57536268e-01, -4.48601305e-01 ]
      - [ 1.07271171e+00, 9.03120160e-01, 1.53163224e-01, 7.11979032e-01,
          1.42801094e+00, 1.21060336e+00, 4.07141179e-01, 4.59766507e-01,
          4.32773620e-01, 5.13264000e-01, -2.82544464e-01,
          2.96500996e-02, 2.16650069e-01, -1.42564792e-02,
          3.18927109e-01, 8.24064732e-01, 1.97262526e+00, 2.16343328e-01,
          -9.75791141e-02, -2.38043740e-01, -6.53296292e-01,
          -3.04184461e+00, -1.85824382e+00, -7.43630469e-01 ]
      - [ 1.07271171e+00, 9.03120160e-01, -6.87701046e-01,
          1.56411693e-01, 1.20093489e+00, 1.21060336e+00, 4.07141179e-01,
          4.59766507e-01, 4.32773620e-01, 5.35476148e-01, 4.15605128e-01,
          -1.15900062e-01, 1.62853245e-02, -6.03007264e-02,
          -1.01066837e-02, 1.56167597e-01, 1.32503200e+00,
          2.05394149e-01, -4.29123253e-01, -3.86616558e-01,
          -4.52823430e-01, -2.44491410e+00, -1.85824382e+00,
          -7.43630469e-01 ]
      - [ -5.51762283e-01, -6.46620333e-01, -1.06744599e+00,
          5.79699814e-01, 1.37560880e+00, 1.21060336e+00, 4.07141179e-01,
          4.59766507e-01, 4.32773620e-01, 5.79897702e-01, 7.77297437e-01,
          -1.51444709e+00, -5.84808886e-01, -1.37040913e-01,
          -2.02042967e-01, 1.85851976e-01, 4.11759347e-01,
          6.30528927e-02, -4.84380484e-01, -5.52332163e-01,
          -4.52823430e-01, -5.71923852e-02, -1.03849518e+00,
          -7.43630469e-01 ]
      - [ -5.51762283e-01, -6.46620333e-01, -1.06744599e+00,
          4.47422206e-01, 1.36978638e+00, 1.21060336e+00, 4.07141179e-01,
          4.59766507e-01, 4.32773620e-01, 5.79897702e-01, 1.09693205e+00,
          -1.70429504e+00, -6.13432527e-01, -1.52388990e-01,
          -4.57958013e-01, -5.16226739e-02, -7.00772583e-01,
          -2.21629307e-01, -6.22523904e-01, -6.60904467e-01,
          -4.30548728e-01, 8.94220844e-02, -8.12357664e-01,
          -7.43630469e-01 ]
      - [ 7.47816861e-01, 9.03120160e-01, 2.88786292e-01, 5.79699814e-01,
          1.36396396e+00, 1.21060336e+00, 4.07141179e-01, 4.59766507e-01,
          4.32773620e-01, 5.79897702e-01, 1.02122903e+00, 2.00513378e-01,
          2.30962083e-01, 2.15964302e-01, 3.37206781e-01, 8.24064732e-01,
          1.69034064e+00, 5.77670753e-01, -1.52836576e-01,
          -1.80900455e-01, 1.26320004e-01, -2.24751830e-01,
          -1.66979587e+00, -7.43630469e-01 ]
      - [ 7.47816861e-01, 5.93172014e-01, -4.16454911e-01,
          4.73878980e-01, 1.18346739e+00, 1.03406501e+00, 4.07141179e-01,
          4.59766507e-01, 4.32773620e-01, 5.79897702e-01, 1.47544646e+00,
          1.39022779e+00, 1.37935504e-01, 5.15251338e-01, 3.18927109e-01,
          7.79538393e-01, 7.77068615e-01, 4.13431138e-01,
          -1.73558012e-01, -4.72331494e-01, -1.70676649e-01,
          6.75879955e-01, 6.76381052e-01, -7.43630469e-01 ]
      - [ 7.47816861e-01, 4.38197941e-01, 2.61660397e-01, 3.15144539e-01,
          1.16017747e+00, 1.03406501e+00, 4.07141179e-01, 4.59766507e-01,
          4.32773620e-01, 5.79897702e-01, 1.41656673e+00, 9.40920532e-01,
          1.52247086e-01, 5.30599177e-01, 4.28604931e-01, 8.53749156e-01,
          1.07595789e+00, 6.21468127e-01, -7.68576711e-02,
          -3.35187525e-01, -4.44531180e-02, 8.53911757e-01,
          3.18330079e-01, -7.43630469e-01 ]
      - [ -1.20155191e+00, -1.26651657e+00, -1.04032171e+00,
          5.53244650e-01, 1.23004723e+00, 1.13998890e+00, 4.07141179e-01,
          4.59766507e-01, 4.32773620e-01, 5.79897702e-01, 1.40815532e+00,
          1.09279931e+00, -1.91235214e-01, 1.85268134e-01,
          1.63550183e-01, -2.19382867e-02, 3.45339417e-01,
          -5.17261028e-01, -4.08401787e-01, -5.35189211e-01,
          -7.05270708e-01, 1.41784355e-01, 1.42075050e+00,
          2.19113350e+00 ]
      - [ 7.47816861e-01, 7.48146117e-01, 4.46644574e-02, 5.00334203e-01,
          1.16600013e+00, 1.03406501e+00, 4.07141179e-01, 4.59766507e-01,
          4.32773620e-01, 5.79897702e-01, 1.29880655e+00, 4.28331077e-01,
          2.23805860e-01, 3.38748723e-01, 1.90969571e-01, 8.38907182e-01,
          1.09256268e+00, 5.66721559e-01, -2.08093822e-01,
          -3.69473428e-01, -1.18702225e-01, 3.61706048e-01,
          -7.74668038e-01, -7.43630469e-01 ]
      - [ 7.47816861e-01, 7.48146117e-01, 7.17887431e-02, 3.94511759e-01,
          1.31156170e+00, 1.13998890e+00, 4.07141179e-01, 4.59766507e-01,
          4.32773620e-01, 5.79897702e-01, 1.21469223e+00, 4.03017968e-01,
          1.80870682e-01, 3.77118826e-01, 3.37206781e-01, 9.42802310e-01,
          1.20879734e+00, 5.44822872e-01, -7.68576711e-02,
          -3.29473108e-01, -1.26127049e-01, 6.54935002e-01,
          4.50805686e-02, -7.43630469e-01 ]
      - [ -2.26867706e-01, -3.36672455e-01, -5.52078009e-01,
          6.85522258e-01, -7.49591947e-01, 4.33833003e-01,
          4.07141179e-01, 4.59766507e-01, 4.32773620e-01, 3.79998028e-01,
          -1.34238577e+00, -2.23480538e-01, 3.05971224e-02,
          -5.66786289e-01, -1.56343609e-01, -7.09631527e-03,
          -3.65740769e-02, -5.17261028e-01, -6.84688449e-01,
          -6.15189910e-01, -6.53296292e-01, -8.84517252e-01,
          -1.41539109e+00, -7.43630469e-01 ]
      - [ 1.39760661e+00, 1.52301621e+00, 3.15910578e-01,
          -1.61055595e-01, -2.02280030e-01, 5.39756894e-01,
          4.07141179e-01, 4.59766507e-01, 4.32773620e-01, 5.79897702e-01,
          7.18417108e-01, 2.70124555e-01, 5.17197192e-01, 6.45709455e-01,
          3.37206781e-01, 1.19511890e+00, 1.17558730e+00,
          -2.64282618e-03, -1.39022201e-01, -3.69473428e-01,
          -7.41526261e-02, 7.07297266e-01, 9.87320125e-01,
          4.83069927e-01 ]
      - [ 4.22921985e-01, 2.83223867e-01, -1.18084513e-01,
          2.62234122e-01, -8.60218823e-01, -2.37013459e-01,
          4.07141179e-01, 4.59766507e-01, 4.32773620e-01, 5.35476148e-01,
          5.83834291e-01, 8.02763402e-02, 2.38117874e-01, 2.69682467e-01,
          -1.10644542e-01, 5.71748137e-01, 7.10648656e-01,
          -2.54477173e-01, -4.15308863e-01, -5.00903130e-01,
          -3.78574312e-01, 1.10366747e-01, 8.64829123e-01,
          8.09154809e-01 ]
      - [ 1.39760661e+00, 1.36804211e+00, 1.80287525e-01, 2.41340548e-02,
          -9.76668417e-01, -5.90090334e-01, 4.07141179e-01,
          4.59766507e-01, 4.32773620e-01, 5.79897702e-01, 1.35768640e+00,
          1.22569275e+00, 3.45456034e-01, 6.38035536e-01, 2.18388960e-01,
          6.31116927e-01, 8.10278594e-01, -6.83388710e-02,
          -4.98194844e-01, -4.55188543e-01, -3.71149510e-01,
          2.88398832e-01, 1.50555205e+00, 2.71908069e+00 ]
      - [ 1.72250116e+00, 1.83296430e+00, -5.79202294e-01,
          -8.48899007e-01, -8.36929262e-01, -1.31089568e-01,
          4.07141179e-01, 4.59766507e-01, 4.32773620e-01, 5.79897702e-01,
          6.42714083e-01, 2.19498321e-01, 1.80870682e-01,
          -6.03007264e-02, -1.38064206e-01, 4.08484221e-01,
          6.11018717e-01, -5.61058044e-01, -4.84380484e-01,
          -5.98046958e-01, -4.67673302e-01, 1.10366747e-01,
          4.40821230e-01, -3.39906305e-01 ]
      - [ -2.26867706e-01, -1.81698367e-01, -6.60576761e-01,
          2.88689345e-01, -1.22703445e+00, -6.25397623e-01,
          4.07141179e-01, 4.59766507e-01, 4.32773620e-01, 4.91053253e-01,
          -7.19939232e-01, -2.61450022e-01, 8.06883052e-02,
          -5.74460447e-01, -1.92902982e-01, -5.16226739e-02,
          7.96605945e-02, -6.04855418e-01, -6.01802468e-01,
          -6.83761895e-01, -6.68146133e-01, -5.59870720e-01,
          -1.07618487e+00, -7.43630469e-01 ]
      - [ 1.39760661e+00, 1.36804211e+00, -3.07956159e-01,
          5.26789427e-01, -7.90349424e-01, -3.07628006e-01,
          4.07141179e-01, 4.59766507e-01, 4.32773620e-01, 2.91153580e-01,
          -9.97516692e-01, -5.26170731e-02, -1.76923409e-01,
          -4.97720271e-01, -2.83860955e-02, 4.82694954e-01,
          4.28364605e-01, -5.73896915e-02, -4.63659048e-01,
          -5.52332163e-01, -8.98318529e-01, -2.72767043e+00,
          -1.85824382e+00, -7.43630469e-01 ]
      - [ 1.39760661e+00, 1.36804211e+00, 2.88786292e-01,
          -7.95988619e-01, -7.96171784e-01, -4.84166443e-01,
          4.07141179e-01, 4.59766507e-01, 4.32773620e-01, 5.79897702e-01,
          9.20291603e-01, 4.66300577e-01, 3.88391227e-01, 5.22925258e-01,
          2.00109288e-01, 9.57644284e-01, 8.76698017e-01,
          -3.20173204e-01, -3.46237272e-01, -4.66617227e-01,
          -2.96900183e-01, 2.98871160e-01, 1.19461298e+00,
          7.62571275e-01 ]
      - [ 1.39760661e+00, 1.36804211e+00, -2.80831873e-01,
          2.35778913e-01, -1.13387501e+00, -1.19032228e+00,
          4.07141179e-01, 4.59766507e-01, 4.32773620e-01, 5.79897702e-01,
          1.28198385e+00, 1.11178386e+00, 1.95182696e-01, 6.15013778e-01,
          4.10325259e-01, 6.31116927e-01, 8.10278594e-01,
          -3.54910120e-02, -6.01802468e-01, -4.20902461e-01,
          -3.93424183e-01, 2.56981522e-01, 1.36421621e+00,
          2.43957925e+00 ]
      - [ 4.22921985e-01, 4.38197941e-01, -5.52078009e-01,
          -1.35155439e+00, -1.16880989e+00, -2.77916813e+00,
          -1.44790137e+00, 1.49476364e-01, 4.32773620e-01,
          2.68942803e-01, 3.23079467e-01, 1.75200254e-01,
          -1.94940642e-02, 1.92942068e-01, -2.56881744e-01,
          2.60062724e-01, 2.29104742e-01, -5.93906224e-01,
          -6.77781165e-01, -7.06619263e-01, -5.41922629e-01,
          -6.76650256e-02, 3.56019616e-01, -2.31211349e-01 ]
      - [ 1.72250116e+00, 1.36804211e+00, 7.17887431e-02, 3.68056566e-01,
          -3.07084501e-01, 7.86909878e-01, 4.07141179e-01,
          4.59766507e-01, 4.32773620e-01, 5.13264000e-01, 2.86788475e-02,
          1.43558949e-01, 3.02520841e-01, -1.52388990e-01,
          6.30120561e-02, 7.35012054e-01, 9.26513255e-01,
          -2.21629307e-01, -3.04794163e-01, -3.63759190e-01,
          -3.63724440e-01, 1.73201650e-01, -3.12970549e-01,
          -7.43630469e-01 ]
      - [ 4.22921985e-01, 4.38197941e-01, -6.06326580e-01,
          7.38434255e-01, -9.06798661e-01, -8.01936030e-01,
          4.07141179e-01, 4.59766507e-01, 4.32773620e-01, 5.35476148e-01,
          4.82896805e-01, 3.59786600e-02, 2.09494278e-01, 1.64394565e-02,
          -1.47203907e-01, 2.60062724e-01, 4.78179306e-01,
          -4.62514460e-01, -4.15308863e-01, -6.43761516e-01,
          -4.67673302e-01, 9.98944119e-02, 2.05261230e-01,
          -2.31211349e-01 ]
      - [ 1.72250116e+00, 1.83296430e+00, -2.26581663e-01,
          2.35778913e-01, -5.92385590e-01, -3.78244638e-01,
          4.07141179e-01, 4.59766507e-01, 4.32773620e-01, 5.13264000e-01,
          7.91478455e-02, 9.92612764e-02, 1.80870682e-01,
          -1.83085158e-01, -1.10644542e-01, 3.63957852e-01,
          6.60833955e-01, -4.84412819e-01, -3.94587427e-01,
          -6.20904148e-01, -4.89948213e-01, -2.57750861e-02,
          -4.91434596e-02, -7.43630469e-01 ]
      - [ -2.26867706e-01, -3.36672455e-01, -9.04698610e-01,
          6.32611871e-01, -8.95153880e-01, 1.01416055e-02,
          4.07141179e-01, 4.59766507e-01, 4.32773620e-01, 3.35576445e-01,
          -9.47048187e-01, -2.42465287e-01, -1.62611827e-01,
          -6.35852575e-01, -2.84301400e-01, -1.85202196e-01,
          -6.97840527e-02, -6.26754105e-01, -7.05409884e-01,
          -6.83761895e-01, -6.97845876e-01, -6.96012855e-01,
          -1.31174481e+00, -7.43630469e-01 ]
      - [ 1.72250116e+00, 1.36804211e+00, 2.34536096e-01,
          -5.84343731e-01, -4.11888957e-01, 4.69140261e-01,
          4.07141179e-01, 4.59766507e-01, 4.32773620e-01, 5.79897702e-01,
          -2.17896458e-02, 1.62543893e-01, 4.59950417e-01,
          3.17875408e-02, 2.00109288e-01, 7.35012054e-01, 9.26513255e-01,
          -2.45415065e-02, -2.84072727e-01, -4.32331175e-01,
          -1.40976906e-01, -2.57750861e-02, -7.46400893e-01,
          -7.43630469e-01 ]
      - [ 1.07271171e+00, 1.36804211e+00, 2.07411811e-01,
          -7.69533396e-01, -5.22515833e-01, 5.75064182e-01,
          4.07141179e-01, 4.59766507e-01, 4.32773620e-01, 1.35676786e-01,
          -1.42650020e+00, 5.49632199e-02, -1.23380581e-02,
          -1.90759093e-01, 1.72689885e-01, 8.24064732e-01,
          5.44599235e-01, 7.40023926e-02, -2.77165443e-01,
          -4.72331494e-01, -6.82996035e-01, -2.52869391e+00,
          -1.85824382e+00, -7.43630469e-01 ]
      - [ -1.20155191e+00, -1.57646477e+00, -7.14825332e-01,
          -1.08143590e-01, -1.11058521e+00, -1.01378381e+00,
          1.88903928e-01, 4.59766507e-01, 4.32773620e-01, 3.35576445e-01,
          -5.26476085e-01, -2.61450022e-01, 6.63767233e-02,
          -3.13543528e-01, -2.11182669e-01, 2.30378345e-01,
          3.95154625e-01, -6.26754105e-01, -5.18916309e-01,
          -6.72333181e-01, -5.41922629e-01, -4.67200540e-02,
          -2.09324256e-01, -4.17545587e-01 ]
      - [ -1.52644682e+00, -1.73143888e+00, -5.52078009e-01,
          3.15144539e-01, -1.39006352e+00, -2.03770709e+00,
          1.88903928e-01, 4.59766507e-01, 4.32773620e-01, 3.35576445e-01,
          -6.52647555e-01, -2.99419701e-01, 3.05971224e-02,
          -4.97720271e-01, -2.38602057e-01, 3.74300443e-02,
          2.12499991e-01, -6.81500614e-01, -5.74173748e-01,
          -6.78047597e-01, -6.31021619e-01, -6.76650256e-02,
          -2.75281042e-01, -7.12574780e-01 ]
      - [ 1.72250116e+00, 1.52301621e+00, -4.43579197e-01,
          6.85522258e-01, -4.23533767e-01, 3.27911198e-01,
          4.07141179e-01, 4.59766507e-01, 4.32773620e-01, 5.79897702e-01,
          5.33365309e-01, 9.29330885e-02, 4.02703226e-01, 2.38986313e-01,
          2.64526866e-02, 7.20169604e-01, 8.10278594e-01,
          -1.77831948e-01, -3.11701447e-01, -5.29474795e-01,
          -3.11750025e-01, 7.89494440e-02, -4.35461849e-01,
          -7.43630469e-01 ]
      - [ 1.39760661e+00, 1.36804211e+00, -4.43579197e-01,
          3.41601342e-01, -5.10871053e-01, -2.72320747e-01,
          4.07141179e-01, 4.59766507e-01, 4.32773620e-01, 4.46631670e-01,
          8.10942769e-01, 2.44811431e-01, 3.23988229e-01, 3.15726489e-01,
          -2.83860955e-02, 4.97537374e-01, 6.60833955e-01,
          -2.65426666e-01, -3.94587427e-01, -5.40903509e-01,
          -4.37973559e-01, 1.31311715e-01, 6.10424280e-01,
          -2.77794927e-01 ]
      - [ 1.39760661e+00, 1.36804211e+00, -2.80831873e-01,
          7.38434255e-01, -8.71863961e-01, -6.25397623e-01,
          4.07141179e-01, 4.59766507e-01, 4.32773620e-01, 5.79897702e-01,
          1.30721784e+00, 8.52324843e-01, 3.45456034e-01, 5.91991544e-01,
          2.00109288e-01, 8.68591547e-01, 8.26883316e-01,
          -9.02375504e-02, -5.12009203e-01, -4.49474126e-01,
          -3.41449767e-01, 2.98871160e-01, 1.22288013e+00,
          1.13523972e+00 ]
      - [ -2.26867706e-01, -1.81698367e-01, -1.12169611e+00,
          5.79699814e-01, -9.88313198e-01, -2.01706201e-01,
          4.07141179e-01, 4.59766507e-01, 4.32773620e-01, 4.91053253e-01,
          -4.92830247e-01, -2.86763161e-01, -3.55820566e-01,
          -6.51200652e-01, -4.03118938e-01, -1.85202196e-01,
          -1.36204004e-01, -1.13042271e+00, -7.26131320e-01,
          -8.38048995e-01, -8.90893698e-01, -1.02065909e+00,
          -6.80444121e-01, -7.43630469e-01 ]
      - [ -8.76657128e-01, -9.56568599e-01, -7.96199799e-01,
          4.73878980e-01, -1.10476279e+00, -8.37245405e-01,
          4.07141179e-01, 4.59766507e-01, 4.32773620e-01, 5.79897702e-01,
          9.87583220e-01, 2.19498321e-01, -2.66498551e-02,
          1.46898046e-01, -3.20860505e-01, -2.19382867e-02,
          4.64506149e-02, -5.82956731e-01, -9.12624955e-01,
          -6.89476132e-01, -7.49820292e-01, -1.82862192e-01,
          1.06269944e+00, 1.74082589e+00 ]
      - [ 1.07271171e+00, 1.21306801e+00, 3.15910578e-01, 3.15144539e-01,
          -3.53664339e-01, 7.86909878e-01, 4.07141179e-01,
          4.59766507e-01, 4.32773620e-01, -3.97389859e-01,
          -1.65360916e+00, 2.19498321e-01, 9.12953168e-03,
          -2.82847345e-01, 3.37206781e-01, 6.45958841e-01,
          9.43117976e-01, 3.25836748e-01, -2.01186746e-01,
          -4.20902461e-01, -9.72567856e-01, -2.73814321e+00,
          -1.85824382e+00, -7.43630469e-01 ]
      - [ 4.22921985e-01, 4.38197941e-01, -1.72333091e-01,
          6.85522258e-01, -5.51628172e-01, 1.51372775e-01,
          4.07141179e-01, 4.59766507e-01, 4.32773620e-01, 4.91053253e-01,
          2.02675145e-02, 3.59786600e-02, 2.59585232e-01,
          -1.98433235e-01, 6.30120561e-02, 4.67852980e-01,
          6.27623975e-01, -2.98274517e-01, -4.01494503e-01,
          -5.35189211e-01, -4.30548728e-01, -1.61917225e-01,
          -6.61599278e-01, -7.43630469e-01 ]
      - [ -2.26867706e-01, -3.36672455e-01, -5.52078009e-01,
          5.00334203e-01, -7.14657247e-01, 3.27911198e-01,
          4.07141179e-01, 4.59766507e-01, 4.32773620e-01, 9.12539065e-02,
          -1.28350544e+00, -1.60197735e-01, -6.95852488e-02,
          -5.82134366e-01, -1.74623296e-01, 5.22724576e-02,
          4.64506149e-02, -4.62514460e-01, -6.63967013e-01,
          -6.09475493e-01, -6.31021619e-01, -9.47351873e-01,
          -1.40596879e+00, -7.43630469e-01 ]
      - [ 1.39760661e+00, 1.36804211e+00, 5.87156713e-01, 7.11979032e-01,
          -5.86562872e-01, -4.84166443e-01, 4.07141179e-01,
          4.59766507e-01, 4.32773620e-01, 5.79897702e-01, 6.67948604e-01,
          2.57467806e-01, 4.38482612e-01, 2.46660233e-01,
          -1.56343609e-01, 7.35012054e-01, 9.26513255e-01,
          -5.73896915e-02, -1.39022201e-01, -1.51846679e-02,
          -5.18779419e-02, 3.30288768e-01, 8.83673966e-01,
          -2.77794927e-01 ]
      - [ 4.22921985e-01, 4.38197941e-01, -5.24953723e-01,
          5.00334203e-01, -1.04653788e+00, -1.33155346e+00,
          4.07141179e-01, 4.59766507e-01, 4.32773620e-01, 5.79897702e-01,
          9.87583220e-01, 2.82780915e-01, 2.66741455e-01, 2.31312156e-01,
          -5.03657103e-01, -1.40675828e-01, -1.19599260e-01,
          -4.40615803e-01, -6.63967013e-01, -2.95187205e-01,
          -1.63251594e-01, -3.62477265e-02, 1.22288013e+00,
          1.53896391e+00 ]
      - [ 1.39760661e+00, 1.21306801e+00, 4.78657931e-01,
          -8.16883743e-02, -9.30088580e-01, -6.60704851e-01,
          4.07141179e-01, 4.59766507e-01, 4.32773620e-01, 5.79897702e-01,
          1.11375475e+00, 4.97941881e-01, 4.59950417e-01, 4.76881236e-01,
          -1.74623296e-01, 6.60801291e-01, 7.43858635e-01,
          -4.64401878e-02, -4.01494503e-01, -4.37564850e-02,
          1.04045317e-01, 3.40761095e-01, 1.50555205e+00, 1.89610445e+00 ]
      - [ 4.22921985e-01, 4.38197941e-01, -6.06326580e-01,
          3.68056566e-01, -9.41733718e-01, -3.07628006e-01,
          4.07141179e-01, 4.59766507e-01, 4.32773620e-01, 5.79897702e-01,
          9.53937411e-01, 3.52391720e-01, 2.45273665e-01, 3.23400646e-01,
          -4.94517088e-01, -5.16226739e-02, 1.12870075e-01,
          -5.61058044e-01, -6.22523904e-01, -3.40901792e-01,
          -2.22651064e-01, -3.62477265e-02, 1.00616491e+00,
          1.22840691e+00 ]
      - [ 4.22921985e-01, 4.38197941e-01, -2.80831873e-01,
          -2.32115830e-03, -7.55414724e-01, -2.51677651e-02,
          4.07141179e-01, 4.59766507e-01, 4.32773620e-01, 5.79897702e-01,
          -2.17896458e-02, 4.33697784e-03, 2.95365065e-01,
          -6.03007264e-02, -4.48818028e-01, 1.85851976e-01,
          3.28734666e-01, -4.73463655e-01, -1.73558012e-01,
          -2.72329807e-01, -3.11750025e-01, 9.98944119e-02,
          -1.81057006e-01, -7.43630469e-01 ]
      - [ -8.76657128e-01, -9.56568599e-01, -8.23324084e-01,
          7.38434255e-01, -1.21538949e+00, -1.40216804e+00,
          4.07141179e-01, 4.59766507e-01, 4.32773620e-01, 5.79897702e-01,
          6.59537256e-01, -3.99607010e-02, 8.78440961e-02,
          1.39223889e-01, -6.68173969e-01, -4.96887594e-01,
          -3.52068603e-01, -6.37703240e-01, -9.26439345e-01,
          -4.55188543e-01, -2.89475352e-01, -1.82862192e-01,
          1.04385459e+00, 1.70977032e+00 ]
      - [ -2.26867706e-01, -1.81698367e-01, -5.79202294e-01,
          5.26789427e-01, -1.03489304e+00, -6.96014225e-01,
          -1.01142037e+00, -1.09170270e+00, 4.32773620e-01,
          1.57887578e-01, -1.46014595e+00, -1.47541374e-01,
          -1.62611827e-01, -9.88857806e-01, -6.13334894e-01,
          -5.71098328e-01, -4.18488055e-01, -5.82956731e-01,
          -3.18608522e-01, -5.23760557e-01, -8.31494212e-01,
          -1.08349395e+00, -1.43423593e+00, -7.43630469e-01 ]
      - [ 4.22921985e-01, 4.38197941e-01, -2.80831873e-01,
          6.06156647e-01, -8.48574042e-01, -5.54783046e-01,
          4.07141179e-01, 4.59766507e-01, 4.32773620e-01, 5.79897702e-01,
          7.68885612e-01, 1.30902588e-01, 3.38300228e-01, 2.85030335e-01,
          -3.48280162e-01, 2.15536371e-01, 4.28364605e-01,
          -3.09224039e-01, -4.84380484e-01, -2.26615041e-01,
          -1.11277178e-01, 1.83673978e-01, 9.77897823e-01,
          1.05760038e+00 ]
      - [ 1.72250116e+00, 1.52301621e+00, 5.60032427e-01, 7.38434255e-01,
          -4.75935996e-01, -2.37013459e-01, 4.07141179e-01,
          4.59766507e-01, 4.32773620e-01, 4.46631670e-01, 1.29616335e-01,
          1.75200254e-01, 6.10223770e-01, 9.31798667e-02,
          -9.23648551e-02, 4.97537374e-01, 9.09907997e-01,
          -1.12136230e-01, 1.29355919e-02, -4.37564850e-02,
          -2.15226233e-01, 2.04618946e-01, -5.57953000e-01,
          -7.43630469e-01 ]
      - [ -8.76657128e-01, -8.01594377e-01, -5.52078009e-01,
          -3.46243650e-01, -1.02907062e+00, -9.78474498e-01,
          4.07141179e-01, 4.59766507e-01, 4.32773620e-01, 5.13264000e-01,
          5.39133437e-02, -2.10823983e-01, 1.52247086e-01,
          -1.06344976e-01, -7.86991537e-01, -3.78150493e-01,
          -2.69043416e-01, -8.01943183e-01, -7.19224274e-01,
          -3.69473428e-01, -3.41449767e-01, -3.08531702e-01,
          6.66958809e-01, 4.52014178e-01 ]
      - [ 1.39760661e+00, 1.52301621e+00, -2.26581663e-01,
          -3.46243650e-01, -6.50610209e-01, 1.01416055e-02,
          4.07141179e-01, 4.59766507e-01, 4.32773620e-01, 5.79897702e-01,
          8.61411750e-01, 5.92866182e-01, 3.95547420e-01, 3.61770749e-01,
          -2.66021729e-01, 3.34273458e-01, 6.77438676e-01,
          -1.88781455e-01, -3.18608522e-01, -1.29471421e-01,
          -3.70280743e-02, 3.61706048e-01, 1.10981143e+00,
          1.22840691e+00 ]
      - [ 1.39760661e+00, 1.36804211e+00, -9.09586027e-02,
          5.79699814e-01, -3.59486729e-01, 5.75064182e-01,
          4.07141179e-01, 4.59766507e-01, 4.32773620e-01, 2.40946654e-03,
          -1.31715131e+00, 2.19498321e-01, -6.24292418e-02,
          -6.58874810e-01, -1.01066837e-02, 4.08484221e-01,
          4.94784057e-01, 7.09062815e-01, 6.02830714e-03,
          -4.55188543e-01, -9.87417459e-01, -3.03137207e+00,
          -1.85824382e+00, -7.43630469e-01 ]
      - [ -2.26867706e-01, -1.81698367e-01, -1.04032171e+00,
          -2.40421236e-01, -8.01994205e-01, -2.72320747e-01,
          4.07141179e-01, 4.59766507e-01, 4.32773620e-01,
          -4.20120917e-02, -1.55267167e+00, -1.03243314e-01,
          -2.98573583e-01, -9.35139596e-01, -5.49356163e-01,
          -4.96887594e-01, -3.52068603e-01, -6.92450106e-01,
          -5.25823593e-01, -6.38047278e-01, -7.72094965e-01,
          -1.01018679e+00, -1.50019264e+00, -7.43630469e-01 ]
      - [ -2.26867706e-01, -3.36672455e-01, -7.14825332e-01,
          4.73878980e-01, -7.72881866e-01, 1.16063401e-01,
          4.07141179e-01, 4.59766507e-01, 4.32773620e-01, 2.02309132e-01,
          -1.57790613e+00, -1.28556430e-01, -1.33988231e-01,
          -9.19791520e-01, -4.57958013e-01, -3.78150493e-01,
          -2.35833928e-01, -4.29666281e-01, -2.90979803e-01,
          -4.78045762e-01, -7.27545381e-01, -9.57824349e-01,
          -1.50961506e+00, -7.43630469e-01 ]
      - [ 4.22921985e-01, 4.38197941e-01, -3.07956159e-01,
          3.94511759e-01, -6.62254989e-01, -3.07628006e-01,
          4.07141179e-01, 4.59766507e-01, 4.32773620e-01, 5.79897702e-01,
          5.08131266e-01, 1.30902588e-01, 3.81235421e-01, 1.46898046e-01,
          -4.03118938e-01, 2.89747119e-01, 4.44969326e-01,
          -2.98274517e-01, -4.63659048e-01, -2.03757837e-01,
          -8.15776736e-02, 1.73201650e-01, 9.02518809e-01,
          5.76237023e-01 ]
      - [ 4.22921985e-01, 5.93172014e-01, -4.16454911e-01,
          6.06156647e-01, -8.66041541e-01, -1.66396827e-01,
          4.07141179e-01, 4.59766507e-01, 4.32773620e-01, 5.79897702e-01,
          2.13730663e-01, 8.66045281e-02, 2.52429456e-01,
          -1.42564792e-02, -4.57958013e-01, 1.56167597e-01,
          3.78549367e-01, -4.95362341e-01, -2.90979803e-01,
          -2.78044075e-01, -4.30548728e-01, 9.98944119e-02,
          2.24106058e-01, -4.95184809e-01 ]
      - [ 7.47816861e-01, 5.93172014e-01, -1.99457377e-01,
          3.68056566e-01, -6.38965070e-01, 1.51372775e-01,
          4.07141179e-01, 4.59766507e-01, 4.32773620e-01, 4.91053253e-01,
          -3.75070095e-01, 4.33697784e-03, 2.09494278e-01,
          -5.36090374e-01, -5.03657103e-01, 5.22724576e-02,
          3.78549367e-01, -5.93906224e-01, -1.59743652e-01,
          -3.18044424e-01, -6.16171718e-01, -5.71923852e-02,
          -7.18133688e-01, -7.43630469e-01 ]
      - [ 1.72250116e+00, 1.52301621e+00, 3.43034863e-01, 1.82866916e-01,
          -3.30374420e-01, 5.39756894e-01, 4.07141179e-01,
          4.59766507e-01, 4.32773620e-01, 4.46631670e-01,
          -9.21813726e-01, 1.49887145e-01, 1.37935504e-01,
          -6.35852575e-01, -1.47203907e-01, 2.60062724e-01,
          2.78919935e-01, 5.44822872e-01, 1.29355919e-02,
          -3.35187525e-01, -3.11750025e-01, -9.78769302e-01,
          -1.85824382e+00, -7.43630469e-01 ]
      - [ 4.22921985e-01, 5.93172014e-01, -6.33452475e-01,
          3.68056566e-01, -7.61237085e-01, 2.57294565e-01,
          4.07141179e-01, 4.59766507e-01, 4.32773620e-01, 5.35476148e-01,
          1.80084825e-01, 5.49632199e-02, 2.52429456e-01,
          -2.59825349e-01, -5.40216446e-01, -7.09631527e-03,
          2.29104742e-01, -6.37703240e-01, -3.18608522e-01,
          -3.69473428e-01, -4.97373015e-01, -1.53027577e-02,
          2.14683652e-01, -4.95184809e-01 ]
      - [ -2.26867706e-01, -4.91646528e-01, -6.60576761e-01,
          4.73878980e-01, -1.05236053e+00, -5.19475818e-01,
          4.07141179e-01, 4.59766507e-01, 4.32773620e-01, 4.68842477e-01,
          -8.04053545e-01, -2.10823983e-01, 8.06883052e-02,
          -7.35615015e-01, -6.13334894e-01, -3.78150493e-01,
          -1.99693348e-02, -7.36247182e-01, -3.25515598e-01,
          -4.38045412e-01, -7.42395222e-01, -3.39948982e-01,
          -9.72538471e-01, -7.43630469e-01 ]
      - [ 1.72250116e+00, 1.52301621e+00, -6.38343170e-02,
          -4.52066094e-01, -5.74918091e-01, -5.19475818e-01,
          4.07141179e-01, 4.59766507e-01, 4.32773620e-01, 5.79897702e-01,
          1.88496158e-01, 6.76199719e-02, 3.95547420e-01,
          -9.09968913e-02, -2.38602057e-01, 2.89747119e-01,
          8.93303275e-01, -1.55933261e-01, 1.98426712e-02,
          -1.46614373e-01, -4.08274055e-01, -4.13256228e-01,
          -1.36827910e+00, -7.43630469e-01 ]
      - [ 1.39760661e+00, 1.21306801e+00, 2.34536096e-01,
          -5.52331619e-02, -5.80740452e-01, 8.07561353e-02,
          4.07141179e-01, 4.59766507e-01, 4.32773620e-01, 5.79897702e-01,
          1.00440586e+00, 4.53644216e-01, 4.52794194e-01, 4.07814771e-01,
          -2.02042967e-01, 4.23326641e-01, 4.94784057e-01,
          -1.77831948e-01, -4.63659048e-01, -1.86614707e-01,
          1.33745044e-01, 3.72178376e-01, 1.60919845e+00, 2.61038566e+00 ]
      - [ 1.39760661e+00, 1.36804211e+00, -1.99457377e-01,
          3.15144539e-01, -4.64291215e-01, 5.75064182e-01,
          4.07141179e-01, 4.59766507e-01, 4.32773620e-01, 2.91153580e-01,
          -9.72282171e-01, 1.18245833e-01, -1.76923409e-01,
          -6.43526733e-01, -2.20322371e-01, 1.71009570e-01,
          4.94784057e-01, 4.57228482e-01, -1.66650727e-01,
          -5.86618245e-01, -8.01794708e-01, -2.97900987e+00,
          -1.85824382e+00, -7.43630469e-01 ]
      - [ 1.39760661e+00, 1.21306801e+00, 3.15910578e-01, 5.05892672e-02,
          -6.44787848e-01, 4.33833003e-01, 4.07141179e-01,
          4.59766507e-01, 4.32773620e-01, -3.97389859e-01,
          -1.65360916e+00, 2.19498321e-01, -1.98391214e-01,
          -7.35615015e-01, -6.49454668e-02, 2.74904698e-01,
          3.78549367e-01, 5.22924185e-01, -1.32114917e-01,
          -4.89474446e-01, -9.87417459e-01, -3.05231690e+00,
          -1.85824382e+00, -7.43630469e-01 ]
      - [ 1.39760661e+00, 1.36804211e+00, -3.07956159e-01,
          2.09322125e-01, -5.34160614e-01, 5.75064182e-01,
          4.07141179e-01, 4.59766507e-01, 4.32773620e-01, 5.79897702e-01,
          9.45526063e-01, 3.90361607e-01, 3.23988229e-01, 1.77593976e-01,
          -1.28924221e-01, 3.78799826e-01, 7.27253377e-01,
          -2.87325352e-01, -2.01186746e-01, -2.09472090e-01,
          -1.63251594e-01, 2.67453849e-01, 6.57536268e-01,
          2.03568533e-01 ]
      - [ 1.72250116e+00, 1.52301621e+00, -4.70703512e-01,
          -1.93357694e+00, -4.11888957e-01, -6.04750328e-02,
          4.07141179e-01, 4.59766507e-01, 4.32773620e-01, 2.46732011e-01,
          2.30553821e-01, 2.00513378e-01, 2.16650069e-01,
          -4.05631781e-01, -3.57419878e-01, 1.11641236e-01,
          4.78179306e-01, -1.88781455e-01, -1.80465087e-01,
          -3.29473108e-01, -5.27072728e-01, -5.71923852e-02,
          -6.61599278e-01, -7.43630469e-01 ]
      - [ 1.07271171e+00, 1.05809426e+00, 1.94338894e+00,
          -1.19282150e+00, 9.62213635e-01, 3.98525745e-01,
          7.97788054e-02, 4.59766507e-01, 4.32773620e-01,
          -8.63821566e-01, -2.62092495e+00, -1.42585135e+00,
          -1.42920327e+00, -1.15001225e+00, -7.59572148e-01,
          -8.08573008e-01, 3.06855249e+00, 4.35518551e+00,
          2.87941027e+00, 1.46482778e+00, -3.93424183e-01,
          -2.52869391e+00, -1.85824382e+00, -7.43630469e-01 ]
      - [ -1.85134149e+00, -1.73143888e+00, 1.80776584e+00,
          -7.43076563e-01, 1.70358017e-01, -1.08439839e+00,
          -3.52118134e+00, -2.48802686e+00, 1.38340354e-01,
          3.35576445e-01, 5.58599770e-01, -8.75292003e-01,
          -1.89433575e+00, -1.59510589e+00, -1.28968191e+00,
          -1.59520769e+00, -1.39818060e+00, -1.43700361e+00,
          5.44787467e-01, 1.13339663e+00, 2.86611485e+00, 3.55580735e+00,
          2.95660090e+00, 2.62591338e+00 ]
      - [ 4.22921985e-01, 7.48146117e-01, 2.43163252e+00,
          -3.99155676e-01, 2.46050179e-01, -6.60704851e-01,
          -1.99350107e+00, 1.49476364e-01, 4.32773620e-01,
          5.79897702e-01, 5.16542614e-01, -8.37322295e-01,
          -1.22883856e+00, -8.96769524e-01, -5.67635834e-01,
          -3.48466098e-01, 2.98453812e-02, 1.02659285e+00,
          1.51179087e+00, 2.04768991e+00, 2.80671525e+00, 2.77037287e+00,
          1.56208658e+00, -1.38044223e-01 ]
      - [ -2.26867706e-01, 2.83223867e-01, 1.83489013e+00,
          1.29956484e-01, 4.84771103e-01, 2.57294565e-01,
          -1.01142037e+00, -5.67795616e-03, 4.32773620e-01,
          5.13264000e-01, 3.65136653e-01, -1.12209439e+00,
          -1.72975039e+00, -1.49534345e+00, -1.25312269e+00,
          -1.66941845e+00, -1.41478562e+00, -5.06311476e-01,
          1.31839025e+00, 2.05340409e+00, 3.20766091e+00, 3.50344515e+00,
          1.51497459e+00, 8.09154809e-01 ]
      - [ -1.20155191e+00, -9.56568599e-01, 8.85527134e-01,
          -5.31433284e-01, 2.28582650e-01, -2.37013459e-01,
          -1.99350107e+00, -7.81412542e-01, 4.32773620e-01,
          2.24521235e-01, 2.64199138e-01, -1.48913395e+00,
          -2.03029752e+00, -1.72556424e+00, -1.59129620e+00,
          -2.17405224e+00, -2.24503326e+00, -9.66182828e-01,
          9.93753374e-01, 1.73911607e+00, 2.30182076e+00, 1.97446525e+00,
          8.17717195e-01, 3.43319207e-01 ]
      - [ -5.51762283e-01, -3.36672455e-01, 9.39777315e-01,
          7.70444795e-02, 2.57694960e-01, -2.37013459e-01,
          -1.88438237e+00, -4.71113175e-01, 4.32773620e-01,
          -4.20120917e-02, -2.22558713e+00, -1.98273861e+00,
          -1.98736227e+00, -1.72556424e+00, -1.53645706e+00,
          -2.01078820e+00, -2.02916884e+00, 1.38792062e+00,
          1.34601891e+00, 1.35054123e+00, 1.27718246e+00,
          -5.71923852e-02, -1.11387432e+00, -7.43630469e-01 ]
   decision_functions:
      -
         sv_count: 1
         rho: 1.9921006659659424e+00
         alpha: [ 1. ]
         index: [ 0 ]
      -
         sv_count: 1
         rho: 5.4552822106460885e-01
         alpha: [ 1. ]
         index: [ 1 ]
      -
         sv_count: 1
         rho: -7.2592663461626605e-01
         alpha: [ 1. ]
         index: [ 2 ]
      -
         sv_count: 1
         rho: -9.9554741512845735e-01
         alpha: [ 1. ]
         index: [ 3 ]
      -
         sv_count: 1
         rho: -6.1580923181515845e-01
         alpha: [ 1. ]
         index: [ 4 ]
      -
         sv_count: 1
         rho: -4.1156591507646290e-01
         alpha: [ 1. ]
         index: [ 5 ]
      -
         sv_count: 1
         rho: -5.5364364343337791e-01
         alpha: [ 1. ]
         index: [ 6 ]
      -
         sv_count: 1
         rho: -8.3508805029508315e-01
         alpha: [ 1. ]
         index: [ 7 ]
      -
         sv_count: 1
         rho: -7.0895323492526552e-01
         alpha: [ 1. ]
         index: [ 8 ]
      -
         sv_count: 1
         rho: -3.5054037443535374e-01
         alpha: [ 1. ]
         index: [ 9 ]
      -
         sv_count: 1
         rho: -9.5081372112494145e-01
         alpha: [ 1. ]
         index: [ 10 ]
      -
         sv_count: 1
         rho: -5.5133670663104228e-01
         alpha: [ 1. ]
         index: [ 11 ]
      -
         sv_count: 1
         rho: -7.3101799660185252e-01
         alpha: [ 1. ]
         index: [ 12 ]
      -
         sv_count: 1
         rho: -4.5941436454541507e-01
         alpha: [ 1. ]
         index: [ 13 ]
      -
         sv_count: 1
         rho: -1.7502029089801444e-01
         alpha: [ 1. ]
         index: [ 14 ]
